[[[-0.03671714663505554, -0.064254030585289, -0.06786675751209259, -0.08042261004447937, 0.03190818428993225, 0.08259489387273788, 0.015767544507980347, -0.0035884156823158264, 0.01488911360502243, 0.08207758516073227], [-0.08382795751094818, 0.003943152725696564, 0.06608962267637253, -0.06533059477806091, 0.06644714623689651, -0.08684685826301575, -0.07587430626153946, -0.05741257220506668, 0.026958785951137543, 0.0720750018954277], [-0.06016604229807854, 0.02459850162267685, -0.08656204491853714, -0.05964723974466324, -0.07610883563756943, 0.054544396698474884, -0.02974874898791313, -0.021625258028507233, 0.05874565988779068, -0.07768924534320831], [-0.0005791783332824707, -0.01224631816148758, 0.047750912606716156, 0.07737802714109421, 0.07567334920167923, 0.005238853394985199, -0.02043014019727707, 0.03621544688940048, 0.06961182504892349, -0.0006852671504020691], [-0.08487104624509811, 0.027452901005744934, 0.0809665247797966, -0.01612435281276703, 0.006072349846363068, -0.0848369151353836, 0.03890717774629593, -0.04529011249542236, -0.021726518869400024, -0.028273526579141617], [-0.05808122083544731, -0.0006280019879341125, 0.02383466064929962, 0.034515559673309326, -0.073122538626194, -0.06687477231025696, 0.00591064989566803, -0.021116137504577637, -0.08168835937976837, -0.03811470791697502], [0.08050469309091568, -0.05381058156490326, -0.004110343754291534, 0.029310613870620728, 0.014944426715373993, -0.0020859017968177795, 0.0635087713599205, 0.06344888359308243, -0.051324743777513504, 0.028175555169582367], [-0.08068403601646423, 0.015757471323013306, 0.07468128949403763, -0.059927988797426224, 0.03625708073377609, -0.025493323802947998, 0.07347508519887924, -0.07084961235523224, 0.06143093854188919, -0.06766992807388306], [0.0781564936041832, -0.06510882824659348, -0.08185109496116638, -0.04145222157239914, -0.0495433434844017, -0.0025606155395507812, 0.022444061934947968, -0.07635783404111862, 0.0548543855547905, 0.04197407513856888], [0.02454102784395218, 0.08404635637998581, 0.05584277957677841, -0.0687134712934494, -0.026722576469182968, -0.003927670419216156, 0.017917126417160034, 0.01876913756132126, 0.019616208970546722, -0.013182736933231354], [-0.08531418442726135, -0.018530316650867462, -0.07925835251808167, 0.07264185696840286, 0.08520779758691788, -0.03493570536375046, 0.07435847073793411, 0.023044832050800323, 0.03481332212686539, -0.016366034746170044], [-0.05223877727985382, -0.02266944944858551, -0.03872070461511612, 0.0438648983836174, 0.007573246955871582, 0.08233163505792618, 0.0019637644290924072, 0.07157828658819199, -0.02504904940724373, 0.007841415703296661], [0.011365331709384918, 0.04922699183225632, 0.017483534291386604, -0.07944006472826004, 0.007155988365411758, 0.03874073177576065, -0.01586993783712387, -0.08340992033481598, -0.008045689202845097, 0.027793118730187416], [-0.10773877799510956, 0.050192296504974365, 0.014523640275001526, -0.07239465415477753, -0.13532783091068268, -0.018233316019177437, 0.08422873914241791, -0.018038704991340637, -0.09687860310077667, -0.1123335212469101], [0.03089389204978943, 0.0435611866414547, 0.03588751330971718, 0.052752625197172165, 0.029431669041514397, -0.04917047545313835, -0.09623049944639206, 0.07089488953351974, -0.08517879247665405, -0.0693483054637909], [-0.07266399264335632, -0.027981646358966827, -0.009182808920741081, 0.02238524705171585, -0.04830534756183624, -0.08053305745124817, -0.058309346437454224, -0.05498379096388817, 0.06546374410390854, -0.04602361097931862], [-0.0037413686513900757, -0.033330097794532776, -0.04689826816320419, -0.021355576813220978, -0.028127186000347137, -0.06300844252109528, -0.032127853482961655, 0.04662100225687027, 0.042643092572689056, 0.015323184430599213], [0.03706910461187363, 0.05340827256441116, -0.014333166182041168, -0.07470240443944931, 0.047336213290691376, 0.03872201591730118, 0.010009869933128357, -0.019177965819835663, -0.08687496185302734, 0.04740142077207565], [-0.06376954913139343, -0.03417138755321503, 0.010388731956481934, -0.0685417652130127, -0.07170681655406952, 0.03292897343635559, 0.08418438583612442, -0.0837564691901207, -0.05278072878718376, -0.06016336753964424], [-0.051200781017541885, 0.06939291208982468, -0.06774820387363434, -0.06196657195687294, 0.040199197828769684, 0.04303564876317978, 0.035405322909355164, 0.02981540560722351, -0.046393975615501404, 0.0430498942732811], [0.037740014493465424, 0.04337497800588608, -0.0070978254079818726, 0.06869836896657944, -0.041341446340084076, -0.08208359032869339, -0.06351731717586517, -0.04826192557811737, 0.004807882010936737, 0.054682426154613495], [-0.08078789710998535, 0.06513654440641403, 0.07566029578447342, 0.05524294823408127, 0.0794910416007042, -0.07257501035928726, -0.049181412905454636, 0.04702664166688919, 0.05145253986120224, -0.04483835771679878], [-0.05652529373764992, -0.06637462228536606, 0.03638570010662079, 0.08144081383943558, -0.012674778699874878, -0.01232888549566269, -0.06373951584100723, 0.03127183020114899, -0.02547236904501915, -0.015227660536766052], [-0.07686376571655273, 0.014044113457202911, 0.03631933778524399, -0.05303515866398811, 0.055648185312747955, 0.06496842950582504, -0.08191332966089249, -0.009627379477024078, -0.054450418800115585, -0.017040401697158813], [0.0822223350405693, -0.045637909322977066, 0.006935194134712219, -0.02163098007440567, -0.05803622305393219, -0.08113390952348709, 0.03762824088335037, 0.023344002664089203, 0.002390936017036438, 0.018177442252635956], [-0.06820064038038254, 0.06929215043783188, 0.0857926681637764, -0.026510387659072876, -0.06485355645418167, -0.0005960017442703247, -0.009464643895626068, -0.04372071474790573, -0.004270225763320923, 0.023912258446216583], [-0.0782303661108017, 0.019576311111450195, -0.014506682753562927, 0.017828114330768585, -0.026353951543569565, 0.03745204955339432, -0.03911633417010307, 0.030140355229377747, 0.010478802025318146, -0.01875893771648407], [-0.013060100376605988, -0.06818263232707977, 0.025251373648643494, 0.051673226058483124, 0.08043044060468674, -0.04208509624004364, 0.08219196647405624, 0.0068583860993385315, -0.007844612002372742, -0.08053083717823029], [0.08089233189821243, 0.019614487886428833, 0.0665554478764534, 0.0573531910777092, 0.014418870210647583, 0.045049868524074554, -0.08479508757591248, -0.05371157452464104, 0.053443215787410736, 0.03183228522539139], [-0.02633320540189743, -0.06927153468132019, 0.025490984320640564, 0.019053511321544647, -0.06058304011821747, 0.03122963011264801, 0.0021231845021247864, 0.008926048874855042, -0.0860021635890007, -0.08285553753376007], [-0.05730718374252319, 0.049229808151721954, -0.04353399947285652, 0.033039361238479614, 0.08478393405675888, -0.05291370674967766, -0.015952929854393005, 0.07374457269906998, -0.0115676149725914, 0.05499935895204544], [-0.07417485862970352, 0.0749402865767479, -0.06611266732215881, 0.025636844336986542, 0.06886445730924606, 0.07753560692071915, 0.008245423436164856, -0.07107284665107727, -0.043967969715595245, -0.00479917973279953], [0.07324228435754776, -0.049260251224040985, 0.018442045897245407, -0.02187390998005867, 0.014916435815393925, -0.08311115205287933, 0.012591877952218056, 0.08056912571191788, -0.08257696032524109, 0.00547775300219655], [0.016431516036391258, 0.008359238505363464, -0.03087512031197548, 0.06538962572813034, -0.052148494869470596, -0.03130052611231804, 0.0436859093606472, -0.07146818190813065, 0.010439282283186913, 0.01686730608344078], [-0.08162689208984375, 0.008237157016992569, -0.1425020396709442, 0.013785936869680882, -0.22145450115203857, 0.003469447372481227, 0.1231711134314537, -0.04485410451889038, -0.03910156339406967, -0.07092384248971939], [-0.10657849162817001, -0.03933479264378548, -0.17282423377037048, -0.14769987761974335, -0.13358370959758759, -0.14216022193431854, 0.163659930229187, -0.18890880048274994, -0.01742635853588581, -0.003922560717910528], [-0.1525316685438156, 0.04257453978061676, -0.25689247250556946, -0.12640349566936493, -0.3226485848426819, -0.06835263967514038, 0.31453660130500793, -0.20388944447040558, -0.05766746401786804, -0.07957344502210617], [-0.1267845332622528, -0.09371346235275269, -0.192726269364357, -0.1476978212594986, -0.33527055382728577, -0.09070328623056412, 0.34978461265563965, -0.17952677607536316, -0.2228589802980423, -0.18189208209514618], [-0.16249147057533264, -0.06577200442552567, -0.4499270021915436, -0.17437607049942017, -0.3985568583011627, -0.2733536958694458, 0.5183520913124084, -0.18957734107971191, -0.2421194463968277, -0.1914314329624176], [-0.24036677181720734, -0.17405137419700623, -0.6652663350105286, -0.26957887411117554, -0.678618848323822, -0.25339627265930176, 0.5957019925117493, -0.3014032542705536, -0.3426738381385803, -0.3823504149913788], [-0.2471040040254593, -0.0962039977312088, -0.6069079637527466, -0.26694455742836, -0.6370450258255005, -0.3294338881969452, 0.5871725678443909, -0.375841349363327, -0.4055091142654419, -0.4459226131439209], [-0.2041504830121994, -0.22243991494178772, -0.5653333067893982, -0.35787340998649597, -0.616585373878479, -0.5026813745498657, 0.5971791744232178, -0.32385098934173584, -0.43018174171447754, -0.41528886556625366], [-0.36325183510780334, -0.04743267968297005, -0.5548345446586609, -0.37097084522247314, -0.6240599155426025, -0.4994921386241913, 0.5093004703521729, -0.2970368266105652, -0.47325313091278076, -0.5073912143707275], [-0.380745530128479, -0.06951543688774109, -0.22053176164627075, -0.401945024728775, -0.5904361605644226, -0.5621808767318726, 0.281282514333725, -0.20719864964485168, -0.5209146738052368, -0.3039458394050598], [-0.4089982509613037, -0.20701536536216736, -0.039147522300481796, -0.37471914291381836, -0.6831205487251282, -0.6846280694007874, 0.18889112770557404, -0.2461758702993393, -0.5473873615264893, -0.37765175104141235], [-0.25324803590774536, -0.3118866980075836, -0.3092191815376282, -0.39513540267944336, -0.672853410243988, -0.6113572716712952, 0.44364452362060547, -0.12624694406986237, -0.4102100133895874, -0.32179996371269226], [-0.3093593716621399, -0.07754907757043839, -0.6348040699958801, -0.2510833740234375, -0.5056396126747131, -0.317577987909317, 0.6090386509895325, -0.13703209161758423, -0.3244704008102417, -0.22559286653995514], [-0.21324723958969116, -0.05146082863211632, -0.3402267396450043, -0.1438361257314682, -0.4216121435165405, -0.2909848988056183, 0.5230913162231445, -0.10113561898469925, -0.24010580778121948, -0.18740278482437134], [-0.08393608778715134, -0.04215891286730766, -0.38190317153930664, -0.1606529802083969, -0.31708022952079773, -0.17858125269412994, 0.4788133502006531, 0.009150669910013676, -0.3178004026412964, -0.1571214199066162], [-0.15724192559719086, -0.017518386244773865, -0.1079048290848732, -0.02590782567858696, -0.217454195022583, -0.09375449270009995, 0.1652059704065323, -0.007170413620769978, -0.15714049339294434, -0.14681486785411835], [-0.11336573213338852, -0.07038319855928421, -0.08709050714969635, 0.04517912119626999, -0.1188974380493164, 0.01078665442764759, 0.17357194423675537, -0.04633966460824013, -0.16500890254974365, 0.0044261254370212555], [0.010058442130684853, -0.0012440521968528628, -0.02351037599146366, 0.03711957857012749, -0.0955667793750763, -0.07917264848947525, -0.00015368731692433357, -0.0959743931889534, 0.030255122110247612, -0.06911727786064148], [0.06914696842432022, 0.05322692543268204, -0.002486899495124817, 0.06663849204778671, 0.07133058458566666, -0.01552584022283554, 0.033775970339775085, 0.022724144160747528, 0.08357428759336472, 0.016319379210472107], [-0.006457865238189697, 0.07871923595666885, 0.041271455585956573, 0.005687601864337921, 0.04998672753572464, -0.03448975458741188, -0.07389800250530243, 0.007461018860340118, -0.055931299924850464, 0.019471727311611176], [-0.041785240173339844, -0.021408237516880035, 0.052583299577236176, -0.037955041974782944, 0.08622889965772629, 0.05225973576307297, -0.05613246187567711, -0.08590947836637497, 0.0536196306347847, 0.0592101588845253], [0.02937828004360199, -0.009561426937580109, -0.07643909752368927, 0.06685411185026169, -0.02221817523241043, 0.06166031211614609, -0.046612150967121124, 0.046307407319545746, -0.029833681881427765, -0.05506814271211624], [0.003115914762020111, -0.0023639127612113953, 0.031237833201885223, -0.01731884479522705, 0.07789324969053268, 0.04323168843984604, 0.00758013129234314, -0.07933209091424942, 0.07619627565145493, 0.011451095342636108], [0.08340156823396683, 0.014188088476657867, 0.07143957167863846, 0.035802774131298065, -0.05307186022400856, -0.00487932562828064, 0.0141557976603508, 0.05974341183900833, -0.022608309984207153, 0.05567605048418045], [-0.0638301745057106, -0.03997211158275604, 0.006300854030996561, -0.056128740310668945, -0.03874243423342705, 0.053856056183576584, 0.048916272819042206, 0.08441351354122162, 0.03047385811805725, -0.033732082694768906], [0.07651526480913162, 0.07582622766494751, -0.10260243713855743, 0.053424183279275894, -0.07635845243930817, 0.005955520085990429, 0.05402156338095665, -0.03298567607998848, -0.08104430139064789, 0.007534306962043047], [-0.018004871904850006, 0.05482621118426323, -0.07397382706403732, -0.005841983016580343, -0.06289800256490707, -0.05970006436109543, 0.08418098837137222, -0.0679929107427597, -0.015481547452509403, -0.11747622489929199], [-0.07289224863052368, -0.0671301931142807, -0.1444186121225357, -0.04964829236268997, -0.11713117361068726, 0.02448558621108532, 0.18483318388462067, -0.017532624304294586, 0.02514561638236046, -0.05023259297013283], [-0.0818977802991867, 0.02362157218158245, -0.3171689808368683, -0.14412237703800201, -0.3887147307395935, -0.17373137176036835, 0.23139692842960358, -0.20440392196178436, -0.08132398873567581, -0.1330696940422058], [-0.21056167781352997, -0.04954913631081581, -0.36295947432518005, -0.4498229920864105, -0.4655452370643616, -0.32973572611808777, 0.5250970721244812, -0.26865047216415405, -0.3648017346858978, -0.2241574078798294], [-0.4562658369541168, -0.18819469213485718, -0.17194077372550964, -0.5745059251785278, -0.634844183921814, -0.34812548756599426, 0.4725074768066406, -0.38538455963134766, -0.535761833190918, -0.3852640986442566], [-0.7391036152839661, -0.24111498892307281, -0.05783317610621452, -0.8361167907714844, -0.8686434030532837, -0.6497753858566284, 0.4471305012702942, -0.5313069820404053, -0.8353061676025391, -0.5306181311607361], [-1.0033148527145386, -0.4117582440376282, -0.21924445033073425, -0.840772807598114, -0.950654923915863, -0.7875643968582153, 0.6513299942016602, -0.7470360398292542, -1.0546690225601196, -0.8672086596488953], [-0.8202673196792603, -0.5217862129211426, -0.13431642949581146, -0.8801418542861938, -1.4711486101150513, -1.016002893447876, 0.6028687357902527, -0.724635899066925, -1.117811679840088, -1.1154013872146606], [-0.8588488698005676, -0.5605472922325134, -0.08688279986381531, -0.9783095121383667, -1.4227834939956665, -1.0501911640167236, 0.45466727018356323, -0.776054322719574, -1.545973777770996, -1.1600979566574097], [-0.9048227071762085, -0.38714906573295593, -0.21455416083335876, -1.0004173517227173, -1.2822136878967285, -1.3504074811935425, 0.3598213195800781, -1.0720182657241821, -1.883897304534912, -1.4962360858917236], [-0.9534711837768555, -0.06477037072181702, -0.15533578395843506, -1.0080773830413818, -1.355664849281311, -1.4507182836532593, 0.31710579991340637, -1.000629186630249, -1.8440852165222168, -1.573307752609253], [-1.1484822034835815, -0.09974740445613861, -0.10376407206058502, -0.8781092762947083, -1.3781696557998657, -1.382405161857605, 0.22652751207351685, -1.0223342180252075, -2.127842426300049, -1.6943145990371704], [-1.078906536102295, -0.03909408673644066, -0.037678204476833344, -0.9515049457550049, -1.3446732759475708, -1.1087242364883423, 0.2442108541727066, -0.7857186794281006, -2.020634651184082, -1.3395708799362183], [-1.308944582939148, -0.4640083312988281, -0.15792439877986908, -0.9164000749588013, -1.2481365203857422, -0.8027900457382202, 0.25192251801490784, -0.7730730772018433, -1.6027686595916748, -1.3399558067321777], [-1.3414225578308105, -0.4874160885810852, -0.43316927552223206, -0.8171014785766602, -1.5679672956466675, -0.7832725048065186, 0.506818950176239, -0.5412591695785522, -1.4465456008911133, -1.237539291381836], [-1.3658077716827393, -0.5395253300666809, -0.7101964950561523, -0.8657468557357788, -1.1435304880142212, -0.5918949246406555, 0.6582903265953064, -0.506766676902771, -1.2933088541030884, -0.9820259213447571], [-1.0590611696243286, -0.38928186893463135, -1.0282151699066162, -0.954214334487915, -0.8628484606742859, -0.7344986796379089, 0.7660202980041504, -0.25665315985679626, -1.3638191223144531, -0.7147485017776489], [-0.885012686252594, -0.4999363422393799, -0.9408038854598999, -0.6928884983062744, -0.7945981025695801, -0.7049064040184021, 0.8027932643890381, -0.25348547101020813, -0.8837649822235107, -0.46211713552474976], [-0.6776190996170044, -0.3319343030452728, -0.7975584268569946, -0.5331479907035828, -0.6437738537788391, -0.5647138953208923, 0.5520228743553162, -0.16141848266124725, -0.569612979888916, -0.39309531450271606], [-0.34637513756752014, -0.16061578691005707, -0.38350343704223633, -0.2690906226634979, -0.5011038184165955, -0.3953048586845398, 0.30669060349464417, -0.1543044149875641, -0.3355103135108948, -0.2644628584384918], [-0.18785904347896576, -0.07033462077379227, -0.15579570829868317, -0.11085350066423416, -0.22729459404945374, -0.29354074597358704, 0.15754351019859314, -0.1145966574549675, -0.24208299815654755, -0.10239068418741226], [-0.12274829298257828, 0.007144847884774208, -0.07844540476799011, -0.06707678735256195, -0.11440309882164001, -0.10295380651950836, 0.09726716578006744, -0.029654454439878464, -0.05462838336825371, 0.06626700609922409], [0.08231089264154434, 0.03171525150537491, -0.073113813996315, 0.02906014770269394, -0.013929352164268494, 0.015984803438186646, 0.04083433002233505, -0.043074533343315125, 0.07129330188035965, 0.02203182876110077], [-0.06376645714044571, -0.04517979174852371, 0.03400515019893646, 0.0001579076051712036, -0.02157232165336609, 0.017726413905620575, -0.010416604578495026, 0.0390971377491951, 0.037951454520225525, 0.031512923538684845], [-0.027692094445228577, -0.0781150683760643, 0.06367918103933334, 0.019778095185756683, 0.03174992650747299, 0.01814059168100357, -0.027351118624210358, -0.009957537055015564, 0.07140389829874039, -0.04077905789017677], [-0.07272970676422119, 0.028909139335155487, -0.01865363121032715, -0.08468574285507202, 0.01041153073310852, -0.06671173870563507, -0.08322281390428543, -0.04831328243017197, -0.023767754435539246, 0.07525195926427841], [0.07309643924236298, 0.10998695343732834, 0.06068163365125656, -0.0983380377292633, -0.048616450279951096, 0.0069151283241808414, -0.08208870142698288, -0.010251961648464203, -0.12828999757766724, -0.06279619038105011], [-0.1381232738494873, 0.053018759936094284, -0.14858777821063995, -0.07971423119306564, -0.20646575093269348, -0.006297112442553043, -0.03134269639849663, -0.022653721272945404, -0.10758262872695923, -0.01826361194252968], [-0.06719415634870529, -0.1076740249991417, -0.12549057602882385, -0.1218954548239708, -0.23787319660186768, -0.0896676629781723, 0.05820983648300171, -0.049801770597696304, -0.149024099111557, -0.14539246261119843], [-0.2823561429977417, -0.16802643239498138, -0.11437106132507324, -0.10003046691417694, -0.20270858705043793, -0.20014619827270508, 0.036988694220781326, -0.1030593067407608, -0.22174103558063507, -0.12906062602996826], [-0.35035160183906555, -0.21094810962677002, 0.0773141160607338, -0.18736416101455688, -0.33473455905914307, -0.40977951884269714, 0.15554597973823547, -0.3945075571537018, -0.5342803597450256, -0.26198309659957886], [-0.38095811009407043, -0.4854624569416046, -0.007941018790006638, -0.09858919680118561, -0.6291464567184448, -0.705572247505188, 0.4235922694206238, -0.5187106728553772, -0.8872441053390503, -0.5342421531677246], [-0.5205062627792358, -0.613203763961792, 0.07829239964485168, -0.22866493463516235, -0.7367586493492126, -0.7905092239379883, 0.2695930004119873, -0.8429931998252869, -1.0902607440948486, -0.7533905506134033], [-0.4727817475795746, -0.7136237621307373, 0.21533580124378204, -0.1638956069946289, -0.941892147064209, -0.7838892340660095, 0.11108879745006561, -1.0358195304870605, -1.2625020742416382, -1.0083611011505127], [-0.4375825524330139, -0.7287005186080933, 0.16700030863285065, -0.2320791780948639, -0.9459466934204102, -0.574327290058136, 0.143629252910614, -1.1269924640655518, -1.2050914764404297, -1.3406175374984741], [-0.2696917653083801, -0.8107275366783142, 0.2070794701576233, 0.16543148458003998, -1.0560706853866577, -0.7216827273368835, 0.0602940134704113, -1.0549852848052979, -1.3610591888427734, -1.5974482297897339], [-0.3154395818710327, -0.550279438495636, 0.09590616822242737, 0.03165731206536293, -1.2932441234588623, -0.3798195421695709, 0.023046668618917465, -1.2512112855911255, -1.0619277954101562, -1.8729703426361084], [-0.38708555698394775, -0.3416716456413269, 0.20329317450523376, -0.09902550280094147, -1.2519577741622925, -0.5518060922622681, -0.01006593182682991, -1.2640806436538696, -0.9118711948394775, -1.9825572967529297], [-0.306816041469574, -0.36026182770729065, -0.012753326445817947, 0.12292999029159546, -1.0717703104019165, -0.3560464382171631, 0.06522288918495178, -1.3638298511505127, -0.9782972931861877, -2.028052806854248], [-0.27689090371131897, -0.17812231183052063, 0.017366494983434677, -0.047880981117486954, -0.9124093055725098, -0.3044373393058777, -0.07117030769586563, -1.2115293741226196, -0.8029515743255615, -2.083479881286621], [-0.3491102159023285, -0.2344648391008377, -0.1296566277742386, -0.09500636905431747, -0.8857786655426025, -0.3297824263572693, -0.18878920376300812, -1.1628750562667847, -0.7414645552635193, -1.8980281352996826], [-0.29427361488342285, -0.4292820394039154, -0.1962268054485321, -0.05223492905497551, -0.8594767451286316, -0.3055296838283539, -0.05166434496641159, -1.0911619663238525, -0.7863490581512451, -1.6183170080184937], [-0.4279574751853943, -0.602992057800293, -0.28326717019081116, -0.03920447826385498, -0.6473957300186157, -0.07864616066217422, 0.026761529967188835, -1.1348035335540771, -0.6813923120498657, -1.6923260688781738], [-0.45644238591194153, -0.6540871262550354, -0.3906460404396057, -0.2921923100948334, -0.3688438832759857, -0.04806077480316162, 0.09576015919446945, -0.9052309393882751, -0.8356382846832275, -1.5066249370574951], [-0.5723641514778137, -0.5302761197090149, -0.45603716373443604, -0.16444852948188782, -0.2778053283691406, -0.13340429961681366, 0.06951121240854263, -0.7160088419914246, -0.9939446449279785, -1.4516324996948242], [-0.5984827876091003, -0.5669735074043274, -0.5353609919548035, -0.28281089663505554, -0.1667056828737259, -0.10361404716968536, 0.0428282767534256, -0.738339900970459, -0.6945362687110901, -1.130601406097412], [-0.7775269150733948, -0.4356219172477722, -0.7660340666770935, -0.6984354853630066, -0.2587519586086273, -0.10801435261964798, 0.29556724429130554, -0.5226642489433289, -0.5610057711601257, -0.8199774026870728], [-0.6485534310340881, -0.4097275733947754, -0.7237262725830078, -0.7725022435188293, -0.3538776934146881, -0.19627805054187775, 0.2600266933441162, -0.3376096189022064, -0.46271297335624695, -0.40613266825675964], [-0.5756973624229431, -0.4150763750076294, -0.448972225189209, -0.4954318702220917, -0.24973784387111664, -0.19192934036254883, 0.1422227919101715, -0.10788799822330475, -0.3575740158557892, -0.26844820380210876], [-0.11550725251436234, -0.22535622119903564, -0.2528858780860901, -0.2656072676181793, -0.23735865950584412, -0.3106224536895752, 0.08644388616085052, -0.023726219311356544, -0.2953876852989197, -0.11897863447666168], [0.04302749037742615, -0.0105720404535532, -0.0012293861946091056, 0.014702402986586094, -0.09004811197519302, 0.032539013773202896, -0.060513779520988464, 0.037213992327451706, 0.027183128520846367, -0.05396553501486778], [-0.06521934270858765, -0.08394542336463928, -0.039157576858997345, 0.04178554564714432, 0.06913068145513535, 0.012415558099746704, -0.04726395010948181, 0.019297674298286438, -0.060279347002506256, 0.0001976415514945984], [0.07376477867364883, -0.04690266028046608, -0.0024021267890930176, 0.030050553381443024, -0.011201374232769012, 0.06231676787137985, -0.04783879220485687, -0.0805000364780426, -0.02423248440027237, 0.08174403756856918], [-0.03901214525103569, 0.0250939279794693, 0.043349187821149826, 0.025222619995474815, 0.07298589497804642, -0.017227796837687492, 0.03741449490189552, -0.08051393181085587, -0.002400503261014819, -0.048152077943086624], [0.030993467196822166, 0.04605214297771454, -0.05218511074781418, -0.023604130372405052, -0.06523846834897995, -0.11552054435014725, -0.07240601629018784, -0.06062326207756996, -0.10346385091543198, -0.05952267721295357], [-0.08788831532001495, -0.023239152505993843, -0.1759999543428421, 0.02864069491624832, -0.15714655816555023, -0.17874419689178467, -0.06269896030426025, -0.0301821269094944, -0.2681846022605896, -0.037496890872716904], [-0.29029715061187744, -0.12975074350833893, -0.18854382634162903, 0.1733689159154892, -0.13685618340969086, -0.5714444518089294, -0.19862031936645508, -0.18450558185577393, -0.3881817162036896, -0.2038499116897583], [-0.6260643601417542, -0.28139346837997437, -0.1168007031083107, 0.09588401764631271, 0.024197611957788467, -0.555381715297699, -0.1591167449951172, -0.30917495489120483, -0.8088566064834595, -0.4602676033973694], [-0.5644175410270691, -0.5359506011009216, 0.10773317515850067, 0.097684346139431, -0.2972002327442169, -0.3232112228870392, -0.07181831449270248, -0.6616730690002441, -1.0520039796829224, -0.7234722375869751], [-0.42677611112594604, -0.7171755433082581, -0.07815922051668167, 0.15426912903785706, -0.30342358350753784, -0.4615081548690796, -0.09540456533432007, -0.9201202988624573, -0.6783168315887451, -0.9194627404212952], [-0.28408128023147583, -0.45518600940704346, 0.0663582980632782, 0.20453613996505737, -0.4521160423755646, -0.6032434701919556, -0.06015922501683235, -0.9758120775222778, -0.34238511323928833, -1.2403225898742676], [-0.17311082780361176, -0.3770354092121124, 0.12522196769714355, -0.03482063114643097, -0.5116662979125977, -0.3553175628185272, -0.15778525173664093, -1.2566615343093872, -0.2856408953666687, -1.7346104383468628], [-0.2772447466850281, -0.15911081433296204, 0.09165916591882706, 0.15845519304275513, -0.6727518439292908, -0.3089730441570282, -0.13716089725494385, -1.5021600723266602, -0.2677209973335266, -1.443206787109375], [-0.12583164870738983, -0.3513385057449341, 0.11504506319761276, 0.2090594321489334, -0.656897246837616, -0.2028624564409256, -0.22255751490592957, -1.049617052078247, -0.1324630081653595, -1.2418367862701416], [-0.23189127445220947, -0.18440981209278107, 0.08299469947814941, 0.12443854659795761, -0.4763825535774231, -0.19649329781532288, -0.3584790527820587, -1.275687336921692, 0.003382842754945159, -1.0633405447006226], [-0.17710745334625244, -0.04916152358055115, 0.05705343559384346, 0.21285775303840637, -0.484391450881958, -0.33551937341690063, -0.309175044298172, -1.5058695077896118, -0.023879777640104294, -0.9916570782661438], [-0.30115875601768494, -0.07100643217563629, 0.009516951628029346, 0.015841683372855186, -0.5689961314201355, -0.209233358502388, -0.23686647415161133, -1.37290358543396, 0.08362164348363876, -1.0116455554962158], [-0.06074339151382446, -0.05308878794312477, -0.09444107115268707, 0.04088195785880089, -0.5590117573738098, -0.017772413790225983, -0.24598060548305511, -1.6734553575515747, 0.03948036953806877, -0.9293472170829773], [-0.1404644399881363, -0.17669633030891418, 0.015817470848560333, 0.10036374628543854, -0.35792696475982666, 0.0034286603331565857, -0.13089421391487122, -2.1729037761688232, 0.0634579062461853, -1.36251962184906], [-0.18930402398109436, -0.17965880036354065, -0.1036129742860794, -0.02428056299686432, -0.3328111171722412, 0.015822475776076317, -0.06897556036710739, -2.5472750663757324, -0.0702333152294159, -1.3481776714324951], [-0.08457031100988388, -0.1403799206018448, -0.15143068134784698, 0.05447143688797951, -0.16408757865428925, 0.05741875618696213, -0.16624607145786285, -2.387479066848755, -0.08250942081212997, -1.56850004196167], [-0.24777543544769287, -0.039378806948661804, -0.2495749294757843, -0.1229168251156807, -0.060832783579826355, -0.08068136870861053, 0.059935230761766434, -2.096116065979004, -0.081593818962574, -2.038114547729492], [-0.1791871190071106, 0.05450949817895889, -0.29100728034973145, -0.19903527200222015, 0.12591442465782166, -0.142719104886055, -0.0037629478611052036, -1.8915867805480957, -0.07617257535457611, -2.0698916912078857], [-0.24173486232757568, 0.04849907010793686, -0.44688183069229126, -0.4693738520145416, 0.08044479042291641, -0.037386033684015274, 0.0860772505402565, -1.1129653453826904, -0.08543369174003601, -1.8590253591537476], [-0.24712727963924408, -0.022134436294436455, -0.8193998336791992, -0.44932642579078674, 0.23834171891212463, -0.10129471123218536, 0.14816251397132874, -1.015429973602295, -0.2782730460166931, -1.6889169216156006], [-0.41068193316459656, -0.2719680368900299, -1.0051530599594116, -1.0101534128189087, 0.04971367493271828, 0.07332312315702438, 0.03581894934177399, -0.9477599859237671, -0.6092891097068787, -1.3576518297195435], [-0.4493744671344757, -0.3669183850288391, -0.9474348425865173, -1.306465744972229, -0.09702503681182861, 0.18086080253124237, -0.1596468836069107, -0.5426755547523499, -0.4660820960998535, -0.8900324106216431], [-0.6289156079292297, -0.6088401079177856, -0.5368300080299377, -0.7397969365119934, -0.1862778216600418, 0.12429492175579071, -0.3014217019081116, -0.4235868453979492, -0.21004070341587067, -0.43770483136177063], [-0.1945357769727707, -0.11438103765249252, -0.2415618747472763, -0.1029958426952362, -0.2527005076408386, 0.0794517993927002, -0.294264018535614, -0.1037396788597107, 0.0040443954057991505, -0.0685134306550026], [0.020037923008203506, -0.11763530969619751, -0.057949911803007126, -0.1216001883149147, -0.11448442935943604, -0.04622761160135269, 0.08784487843513489, -0.07891271263360977, -0.06455159187316895, -0.03646371141076088], [-0.01371859759092331, 0.07394080609083176, -0.07955773174762726, -0.02994566410779953, -0.05679648742079735, -0.05326220393180847, -0.05008707568049431, 0.002071492373943329, -0.019161798059940338, 0.03563197702169418], [-0.0515575110912323, -0.05564586818218231, -0.026245784014463425, -0.06346850842237473, -0.06926298886537552, -0.06099352985620499, -0.02854778990149498, -0.0860075131058693, -0.040741294622421265, -0.013067193329334259], [-0.08045624196529388, 0.08190064877271652, -0.08999989926815033, 0.03343335911631584, -0.13241563737392426, -0.12823882699012756, -0.029285771772265434, -0.0601225383579731, -0.20400230586528778, -0.0018410927150398493], [-0.17287319898605347, 0.0760253444314003, -0.24304980039596558, 0.19306544959545135, -0.24947328865528107, -0.3770914673805237, -0.21820180118083954, -0.3138273358345032, -0.5059627294540405, -0.1945803016424179], [-0.4827935993671417, -0.05497020110487938, -0.12162453681230545, 0.3100326955318451, -0.025581400841474533, -0.68486487865448, -0.24278093874454498, -0.339648574590683, -0.716614305973053, -0.6411032676696777], [-0.5227850079536438, -0.31194961071014404, -0.061862438917160034, 0.17506848275661469, 0.06482023745775223, -0.5814287066459656, -0.3726399838924408, -0.36877068877220154, -0.9958528876304626, -1.0385186672210693], [-0.4613156020641327, -0.2589842677116394, -0.09218557924032211, 0.18643945455551147, -0.15498360991477966, -0.5074673891067505, -0.229192316532135, -0.2849265933036804, -0.6139204502105713, -1.4058630466461182], [-0.26134586334228516, -0.46924927830696106, -0.07741119712591171, 0.04619648680090904, -0.2740485966205597, -0.29581770300865173, -0.17423979938030243, -0.21844446659088135, -0.3095044493675232, -1.3419073820114136], [-0.21192672848701477, -0.5511752963066101, -0.022122344002127647, 0.020952405408024788, -0.23910196125507355, -0.2371816635131836, -0.1347033530473709, -0.14523334801197052, -0.23289580643177032, -1.1810870170593262], [-0.12769044935703278, -0.517417848110199, -0.07875648885965347, 0.02038428746163845, -0.12305553257465363, -0.20116381347179413, -0.22773675620555878, -0.19499722123146057, -0.15026745200157166, -0.904854416847229], [-0.029985040426254272, -0.28126057982444763, -0.020053140819072723, 0.10140755772590637, -0.20032502710819244, -0.02792784757912159, -0.18463777005672455, -0.28648868203163147, -0.14791086316108704, -0.44435662031173706], [-0.1493683010339737, -0.40320369601249695, 0.014463580213487148, 0.005067198537290096, -0.19424885511398315, -0.059382107108831406, -0.4643678665161133, -0.4033306837081909, -0.05973257124423981, -0.03841646388173103], [-0.18889658153057098, -0.34488096833229065, 0.06133393943309784, -0.040368467569351196, -0.23500502109527588, -0.16996578872203827, -0.324959397315979, -0.33351072669029236, 0.003296030918136239, -0.04521700739860535], [0.014499238692224026, -0.10688413679599762, 0.08242827653884888, 0.005364493932574987, -0.27981841564178467, -0.2138606607913971, -0.23768195509910583, -0.45059457421302795, 0.06367146223783493, -0.06958631426095963], [0.06193406134843826, -0.2058584988117218, -0.018166067078709602, -0.08481533080339432, -0.14562150835990906, -0.22294476628303528, -0.14113420248031616, -0.39208099246025085, -0.0007870749104768038, -0.2530258595943451], [0.05961750075221062, -0.011812188662588596, 0.0915616825222969, 0.12784986197948456, -0.07797477394342422, -0.1495693176984787, -0.17960715293884277, -0.5857675671577454, 0.05767795071005821, -0.2240673005580902], [-0.09098711609840393, -0.24580372869968414, 0.10834451764822006, 0.062468379735946655, -0.022502927109599113, -0.08734612911939621, -0.22993503510951996, -0.5987909436225891, 0.10618898272514343, -0.5372212529182434], [0.0994315892457962, -0.3662812113761902, 0.09338381141424179, -0.09173057973384857, -0.12634652853012085, 0.017979469150304794, -0.12491543591022491, -0.7137536406517029, 0.016405783593654633, -0.4401305317878723], [0.0959918275475502, -0.19210268557071686, -0.018229709938168526, -0.07704272866249084, -0.027177317067980766, 0.038772013038396835, 0.0429171547293663, -0.936210036277771, -0.11362561583518982, -0.44536837935447693], [0.007473970763385296, -0.12582220137119293, -0.13638897240161896, -0.039257049560546875, -0.04540879651904106, -0.0009201587527059019, 0.053824666887521744, -1.0716993808746338, -0.02832121215760708, -0.44351401925086975], [-0.21483422815799713, -0.034143198281526566, -0.17859089374542236, -0.1586131900548935, 0.009378095157444477, 0.034668609499931335, 0.0681321918964386, -1.5051500797271729, 0.05002066120505333, -0.453389048576355], [-0.11132309585809708, 0.08766113221645355, -0.18069426715373993, -0.3752620816230774, -0.06230160966515541, -0.03639233857393265, 0.1265754997730255, -1.4498393535614014, -0.1528366208076477, -0.9033004641532898], [-0.16128325462341309, 0.10145086795091629, -0.27889227867126465, -0.4183575510978699, 0.059404078871011734, 0.013508807867765427, 0.014362821355462074, -1.4399840831756592, -0.2481369525194168, -1.4241398572921753], [-0.37646836042404175, -0.029374852776527405, -0.7760728597640991, -0.7314761877059937, 0.22202976047992706, 0.016847576946020126, 0.10857425630092621, -1.7830983400344849, -0.35762616991996765, -2.439262628555298], [-0.8088231682777405, -0.340880423784256, -1.190032958984375, -1.2481409311294556, 0.07611474394798279, 0.11197204142808914, 0.008904403075575829, -1.3339424133300781, -0.32807695865631104, -2.0550293922424316], [-1.048124074935913, -0.6564497351646423, -0.9284006357192993, -1.371126413345337, -0.2021133303642273, 0.35627713799476624, -0.3761603534221649, -0.9217264652252197, -0.11778311431407928, -1.2458001375198364], [-0.5502004623413086, -0.34161633253097534, -0.6256032586097717, -0.45213571190834045, -0.4225781559944153, 0.28000175952911377, -0.3229251503944397, -0.4360754191875458, -0.1956857442855835, -0.5134254693984985], [-0.16644474864006042, -0.022740144282579422, -0.06985890865325928, -0.11905967444181442, -0.15841057896614075, 0.09931068867444992, 0.051053088158369064, -0.050872962921857834, -0.1268283575773239, -0.12241274863481522], [-0.025815438479185104, 0.00608428567647934, -0.07147929817438126, 0.011253587901592255, 0.07959269732236862, 0.08349251002073288, -0.05348743125796318, 0.01017192006111145, -0.020962700247764587, 0.0840083435177803], [0.022402266040444374, -0.019179850816726685, -0.04128245636820793, 0.07623662054538727, 0.06772466003894806, 0.033031780272722244, -0.06530792266130447, 0.030915742740035057, -0.03675667569041252, -0.007587178610265255], [-0.15393102169036865, -0.010880147106945515, -0.09417086839675903, -0.09293270111083984, -0.23761267960071564, -0.19262614846229553, -0.009389887563884258, 0.002032299293205142, -0.2738061249256134, -0.19287711381912231], [-0.48607057332992554, -0.010595136322081089, -0.3355412483215332, 0.1331198811531067, -0.2803577780723572, -0.5854002237319946, -0.2805262506008148, 0.007224984932690859, -0.8268107771873474, -0.47661110758781433], [-0.5141280293464661, -0.10393257439136505, -0.11432190984487534, 0.16768908500671387, -0.16733014583587646, -0.7230424880981445, -0.4317772090435028, -0.04620478302240372, -0.6110057830810547, -0.8671651482582092], [-0.45686978101730347, -0.5509147644042969, -0.07719217240810394, 0.0831470713019371, -0.12123662233352661, -0.5579369068145752, -0.4106467366218567, 0.1367603838443756, -0.5533748269081116, -1.1936688423156738], [-0.15721094608306885, -0.5616312623023987, -0.06973613798618317, 0.09517856687307358, -0.16486965119838715, -0.2518063187599182, -0.3213423490524292, 0.0356912724673748, -0.5012336373329163, -0.8452897071838379], [-0.25720590353012085, -0.556591808795929, -0.0003601434000302106, -0.038171589374542236, -0.09584257751703262, -0.21394149959087372, -0.21233916282653809, -0.02938106097280979, -0.20275850594043732, -0.8233662247657776], [-0.2759006917476654, -0.4128822684288025, 0.025306174531579018, 0.0026017646305263042, -0.2421720176935196, -0.19286328554153442, -0.18848831951618195, 0.1261569857597351, -0.1851409524679184, -0.39729270339012146], [-0.3132792115211487, -0.48656782507896423, -0.04162050783634186, 0.0424688421189785, -0.18336232006549835, -0.1630949079990387, -0.20491284132003784, 0.07602281123399734, -0.22394637763500214, -0.17778423428535461], [-0.16918617486953735, -0.2685767114162445, 0.08528972417116165, 0.07017891108989716, -0.18109874427318573, -0.13913719356060028, -0.23497234284877777, 0.05638027563691139, -0.12923495471477509, -0.020588573068380356], [-0.12930896878242493, -0.1638801544904709, -0.0494365356862545, 0.005484966095536947, -0.36084216833114624, -0.05281733721494675, -0.29381418228149414, 0.11217357963323593, -0.06573618948459625, -0.016180304810404778], [-0.11472483724355698, -0.2987576723098755, -0.043816931545734406, 0.013492115773260593, -0.3980890214443207, -0.04754095524549484, -0.15252521634101868, 0.06716182827949524, 0.06293866783380508, 0.05528036132454872], [0.150975301861763, -0.2735913395881653, 0.03048199601471424, 0.17878292500972748, -0.4095916748046875, -0.00037887360667809844, -0.2840014696121216, -0.06494731456041336, 0.016657227650284767, 0.3190560042858124], [-0.008094768039882183, -0.21184954047203064, 0.024630241096019745, 0.08735524863004684, -0.4168916642665863, -0.03917039930820465, -0.14781224727630615, -0.1281777322292328, 0.011532479897141457, 0.21736866235733032], [0.008824031800031662, -0.3596380352973938, 0.08469763398170471, 0.0394749790430069, -0.5343377590179443, -0.05579769238829613, -0.09782671183347702, -0.08144691586494446, 0.09573336690664291, 0.188738614320755], [0.08049479126930237, -0.38602590560913086, -0.02876579388976097, 0.06899961829185486, -0.3835538923740387, -0.08024518936872482, -0.16932199895381927, 0.0305784959346056, 0.022360730916261673, 0.2697581648826599], [0.11551336199045181, -0.38022854924201965, -0.07765467464923859, -0.008872735314071178, -0.40146297216415405, -0.07522790133953094, -0.09459201246500015, -0.029454102739691734, -0.030041459947824478, 0.14925017952919006], [0.06886949390172958, -0.20671799778938293, -0.02228482812643051, 0.0027624317444860935, -0.3620089590549469, 0.006692355964332819, -0.14409708976745605, -0.13263988494873047, -0.06219160184264183, 0.11992832273244858], [0.0773974135518074, -0.16656246781349182, -0.18297545611858368, -0.14790019392967224, -0.19082026183605194, 0.053614430129528046, -0.15868087112903595, -0.09003224223852158, 0.018518757075071335, 0.033670537173748016], [-0.017390817403793335, -0.10911531001329422, -0.10143687576055527, -0.15124082565307617, -0.2464304268360138, 0.06888293474912643, -0.018263285979628563, -0.13651132583618164, -0.07032091170549393, -0.10862619429826736], [0.10986150056123734, -0.10096453130245209, -0.2029133141040802, -0.1800612360239029, -0.19513952732086182, -0.06776810437440872, -0.04080824553966522, -0.1543933004140854, -0.08678355813026428, -0.2378445714712143], [0.019376639276742935, -0.13662494719028473, -0.3141303062438965, -0.3009870946407318, 0.03129157796502113, -0.01189051941037178, -0.08515924960374832, -0.2905113697052002, -0.13975216448307037, -0.6402460336685181], [-0.19134896993637085, -0.19013284146785736, -0.6810489892959595, -0.5118467807769775, 0.21053045988082886, 0.047254566103219986, -0.19377584755420685, -0.747916042804718, -0.11963073909282684, -0.9506270289421082], [-0.7493336796760559, -0.5030430555343628, -1.2125297784805298, -1.131363868713379, -0.05220905318856239, 0.27640512585639954, -0.29783138632774353, -1.210684895515442, -0.20722950994968414, -1.3443516492843628], [-1.2349611520767212, -0.9636024236679077, -1.3798643350601196, -1.767492651939392, -0.2959410846233368, 0.36850500106811523, -0.4814419150352478, -1.2579426765441895, 0.006886625196784735, -1.290785312652588], [-0.7288245558738708, -0.5555486083030701, -0.6562386751174927, -0.7324050068855286, -0.3734813332557678, 0.3274628818035126, -0.4645398259162903, -0.7392022013664246, -0.23379339277744293, -0.8700616955757141], [-0.1285359263420105, -0.06593071669340134, -0.13739696145057678, -0.17646047472953796, -0.30856236815452576, 0.2222891002893448, -0.14824393391609192, -0.19221605360507965, -0.16968365013599396, -0.16920559108257294], [-0.039434611797332764, 0.058045871555805206, -0.021368639543652534, 0.04527353495359421, 0.07994484901428223, -0.03845195844769478, 0.04914313554763794, 0.022557975724339485, 0.026870274916291237, -0.01446493063122034], [-0.09468238800764084, -0.1715705692768097, -0.12539854645729065, -0.021925926208496094, -0.07391902804374695, -0.10294552147388458, -0.06305190175771713, 0.052633728832006454, -0.12911663949489594, -0.19477635622024536], [-0.15372057259082794, -0.05062064900994301, -0.22821591794490814, -0.30665892362594604, -0.3052879869937897, -0.1783427894115448, -0.19318203628063202, 0.26392942667007446, -0.5014032125473022, -0.41290661692619324], [-0.5231685638427734, -0.19691990315914154, -0.2342667579650879, 0.04290788993239403, -0.2707044780254364, -0.8950020670890808, -0.36762672662734985, 0.23844259977340698, -0.9992769360542297, -0.8287814855575562], [-0.6668000817298889, -0.3797931373119354, 0.06495818495750427, 0.13881130516529083, 0.008647269569337368, -0.9323752522468567, -0.3787968158721924, -0.054779257625341415, -0.48722487688064575, -0.9205521941184998], [-0.3214355409145355, -0.5312303900718689, 0.00701081333681941, 0.0867304801940918, 0.0343925841152668, -0.6303853392601013, -0.35132020711898804, 0.07024714350700378, -0.37255623936653137, -0.937698245048523], [-0.21923159062862396, -0.5374265909194946, 0.0976194441318512, 0.039803311228752136, -0.1735554337501526, -0.19281958043575287, -0.4086732268333435, 0.07732444256544113, -0.1906452178955078, -0.7045682072639465], [-0.2063092142343521, -0.5708212852478027, -0.11921177059412003, -0.06156741827726364, -0.15356212854385376, -0.15643899142742157, -0.07934681326150894, 0.10795504599809647, -0.10906227678060532, -0.5349135398864746], [-0.3429066240787506, -0.6777880787849426, 0.012686263769865036, -0.088237464427948, -0.08596440404653549, 0.028519131243228912, -0.16591008007526398, 0.021869530901312828, -0.018268845975399017, -0.21665021777153015], [-0.11240626871585846, -0.46818533539772034, -0.0919157937169075, 0.05622287094593048, -0.1536281257867813, 0.029877591878175735, -0.1934843510389328, 0.187471404671669, -0.0019693246576935053, -0.1495675891637802], [0.05838236212730408, -0.32088905572891235, -0.07537444680929184, -0.024971652776002884, -0.22707679867744446, 0.10081175714731216, -0.2537279725074768, 0.19814518094062805, -0.06778620928525925, -0.14742672443389893], [-0.040630899369716644, -0.2906893193721771, 6.817514076828957e-05, -0.03888756409287453, -0.2744112014770508, 0.04272983968257904, -0.1099933311343193, 0.1629399210214615, -0.13493351638317108, -0.008773238398134708], [-0.005744757130742073, -0.16560550034046173, -0.09173795580863953, 0.10526857525110245, -0.5423426628112793, 0.0225217342376709, -0.20135733485221863, 0.06095992401242256, -0.07237453758716583, 0.07521311938762665], [0.04900715872645378, -0.13946689665317535, 0.05586686357855797, 0.022566387429833412, -0.36000576615333557, -0.02085712179541588, -0.17361730337142944, -0.006655813194811344, -0.09891439974308014, 0.19789695739746094], [0.014852529391646385, -0.24447216093540192, 0.026932688429951668, 0.1400979459285736, -0.497776597738266, -0.06212937831878662, -0.13994324207305908, -0.1353873610496521, -0.1337442696094513, 0.39733242988586426], [0.006119308527559042, -0.29525864124298096, -0.04252181947231293, 0.10611792653799057, -0.49059441685676575, -0.1644054353237152, -0.21910974383354187, -0.026501191779971123, 0.0666552260518074, 0.3076820373535156], [0.10639377683401108, -0.3972415626049042, -0.04280597344040871, 0.0649995282292366, -0.4920505881309509, -0.01601836457848549, -0.23877593874931335, 0.07220850139856339, -0.004055370576679707, 0.39225897192955017], [0.23259782791137695, -0.2830376923084259, -0.1347755342721939, 0.07000010460615158, -0.2441650778055191, 0.08738160133361816, -0.28512847423553467, 0.14159877598285675, -0.021895578131079674, 0.11704233288764954], [0.1480584740638733, -0.20169371366500854, -0.13603156805038452, 0.0009115589782595634, -0.26329731941223145, -0.0016395288985222578, -0.2708374261856079, 0.19120191037654877, 0.018038906157016754, 0.08609095960855484], [0.11348913609981537, -0.11890988796949387, -0.10252347588539124, 0.051545366644859314, -0.14339688420295715, 0.0689048320055008, -0.32924365997314453, 0.06197810918092728, 0.014436114579439163, 0.009618311189115047], [0.000259049964370206, -0.06686444580554962, -0.12330762296915054, -0.12189128994941711, -0.21348589658737183, 0.048740893602371216, -0.286505788564682, 0.06512824445962906, 0.020496560260653496, -0.021485302597284317], [-0.005871571600437164, -0.111984983086586, -0.04397803172469139, -0.22769522666931152, -0.09477846324443817, 0.0342022143304348, -0.17769569158554077, -0.0611959733068943, 0.040001630783081055, -0.06832744181156158], [0.04796053469181061, -0.2914450466632843, -0.15908372402191162, -0.26474305987358093, 0.010944394394755363, 0.046189893037080765, -0.31799739599227905, -0.10942108184099197, -0.14316235482692719, -0.35898658633232117], [-0.06804370135068893, -0.4822985827922821, -0.539035439491272, -0.525105357170105, 0.04953092709183693, 0.08090759068727493, -0.41988176107406616, -0.3369201719760895, 0.05850328505039215, -0.568480372428894], [-0.46930262446403503, -0.7269907593727112, -1.260958194732666, -1.3927067518234253, -0.1936025768518448, 0.38023948669433594, -0.5166348218917847, -0.6141709685325623, -0.09772376716136932, -0.9405728578567505], [-1.3137496709823608, -1.070913314819336, -1.274428367614746, -1.7910172939300537, -0.35716086626052856, 0.5578164458274841, -0.7919299602508545, -0.9868643283843994, -0.19735173881053925, -1.0305421352386475], [-0.975083589553833, -0.5082981586456299, -0.799139142036438, -0.7958023548126221, -0.2263522446155548, 0.1479489654302597, -0.6696192026138306, -1.1040011644363403, -0.045857902616262436, -0.9581477642059326], [-0.21367956697940826, -0.1014772579073906, -0.21364718675613403, -0.2345929890871048, -0.33803993463516235, 0.06584251672029495, -0.1730218380689621, -0.2232143133878708, -0.02759917639195919, -0.2974691092967987], [0.04433084651827812, 0.013610306195914745, 0.04440045729279518, -0.051063258200883865, 0.047283850610256195, -0.06010584905743599, -0.023182107135653496, -0.057189736515283585, -0.09679045528173447, -0.007593837101012468], [-0.11155199259519577, -0.07721297442913055, -0.08566192537546158, -0.3059411644935608, -0.27756640315055847, -0.14599727094173431, -0.10667995363473892, 0.21560817956924438, -0.2607383728027344, -0.2860107421875], [-0.2140340507030487, -0.1611042469739914, -0.27868035435676575, -0.44358858466148376, -0.5294979214668274, -0.4580596089363098, -0.28352728486061096, 0.5035616755485535, -0.6135542988777161, -0.6810837388038635], [-0.44728320837020874, -0.3337981402873993, -0.29568785429000854, 0.04883735626935959, -0.4028131365776062, -1.0064054727554321, -0.4778725206851959, 0.30658161640167236, -0.514875590801239, -0.862196683883667], [-0.5543005466461182, -0.5010039210319519, -0.01855013519525528, 0.15362469851970673, -0.2004883885383606, -0.9338691234588623, -0.508994460105896, 0.044696394354104996, -0.3458576202392578, -0.8321614861488342], [-0.34278568625450134, -0.650724470615387, 0.0033371869940310717, 0.10592102259397507, -0.06137583404779434, -0.48117032647132874, -0.46128568053245544, 0.07476714253425598, -0.08935414999723434, -0.4585212767124176], [-0.13188426196575165, -0.49528419971466064, -0.10567698627710342, 0.0339537151157856, -0.09702559560537338, -0.26745954155921936, -0.2722231447696686, 0.09530584514141083, -0.007602221332490444, -0.3345699906349182], [-0.27864861488342285, -0.43201568722724915, 0.019590262323617935, 0.03158845007419586, -0.0835198238492012, -0.2712075710296631, -0.24311667680740356, 0.24436922371387482, 0.014144159853458405, -0.3394896984100342], [-0.15906758606433868, -0.5706468224525452, -0.06736183911561966, -0.1460953801870346, -0.24647149443626404, 0.052322857081890106, -0.23007579147815704, 0.05378815159201622, -0.025362776592373848, -0.1250167340040207], [-0.0428948774933815, -0.5440311431884766, 0.043694425374269485, -0.024303670972585678, -0.10683334618806839, -0.050363823771476746, -0.10011798143386841, 0.03881291672587395, 0.04375535622239113, -0.20647679269313812], [-0.09097886085510254, -0.31712770462036133, 0.07521528005599976, 0.023677213117480278, -0.1750769019126892, -0.012239458970725536, -0.3028845191001892, -0.01730469986796379, 0.024542804807424545, -0.1666424423456192], [-0.11705298721790314, -0.2636090815067291, 0.11167266964912415, -0.08587151020765305, -0.18814025819301605, 0.04135662317276001, -0.11685303598642349, 0.1711524873971939, -0.04341718927025795, -0.22163257002830505], [0.0823226198554039, -0.05843691900372505, -0.01970723271369934, -0.014440209604799747, -0.2547275722026825, -0.010207653976976871, -0.17864413559436798, 0.15674525499343872, 0.030421467497944832, -0.2244454175233841], [-0.005540868733078241, -0.039800964295864105, -0.0669863298535347, 0.06871785968542099, -0.33489903807640076, -0.13266469538211823, -0.2789037823677063, 0.07531989365816116, 0.07682685554027557, 0.08649660646915436], [0.10827621817588806, -0.0402914397418499, 0.09125227481126785, 0.10557784885168076, -0.4751531481742859, -0.13529296219348907, -0.24067899584770203, 0.121940977871418, -0.19473233819007874, 0.1078893318772316], [0.18325284123420715, 0.017924204468727112, -0.04698524624109268, 0.11085759103298187, -0.40697208046913147, -0.21125908195972443, -0.32260435819625854, 0.07294508069753647, -0.13032014667987823, 0.18055589497089386], [0.30538439750671387, -0.10277889668941498, 0.00023287764634005725, 0.08743572235107422, -0.36608368158340454, -0.1455712765455246, -0.3324396014213562, 0.13239595293998718, -0.014444202184677124, 0.0019738178234547377], [0.2360745221376419, -0.03849312663078308, -0.12238796800374985, 0.02385709248483181, -0.25039803981781006, -0.13514208793640137, -0.39797455072402954, 0.1591685563325882, -0.07926785200834274, -0.017331233248114586], [0.1933049112558365, -0.13117069005966187, -0.08810174465179443, 0.14371176064014435, -0.16619658470153809, -0.03214922919869423, -0.6198862791061401, 0.2058132141828537, 0.039815425872802734, -0.0644972026348114], [0.07352712005376816, -0.18819628655910492, -0.012676439248025417, 0.0681479349732399, -0.08250536769628525, 0.02692049741744995, -0.4753437340259552, 0.02135850116610527, 0.0042930240742862225, -0.1428259313106537], [0.03300317004323006, -0.23531045019626617, -0.082326740026474, 0.00028979950002394617, -0.12635540962219238, 0.11164384335279465, -0.42417943477630615, -0.038293372839689255, -0.051973771303892136, -0.19985845685005188], [-0.05947934463620186, -0.3772757649421692, -0.12682728469371796, -0.06559910625219345, -0.19459587335586548, 0.09343516826629639, -0.3390656113624573, -0.17053008079528809, -0.0022909119725227356, -0.11677113175392151], [0.005717764142900705, -0.3492075800895691, -0.1593276709318161, -0.07504291087388992, -0.1456100344657898, 0.09344089776277542, -0.37110811471939087, -0.11595097929239273, 0.06636401265859604, -0.2911562919616699], [0.10313302278518677, -0.6765412092208862, -0.3768145442008972, -0.6465857028961182, -0.13007445633411407, 0.2792849838733673, -0.5468792915344238, -0.3342195153236389, -0.0469055213034153, -0.5602125525474548], [-0.18661215901374817, -0.8587208390235901, -1.520603060722351, -1.66132390499115, -0.33632123470306396, 0.5470555424690247, -0.8047271966934204, -0.6634935140609741, 0.13326500356197357, -0.8811123371124268], [-1.501080870628357, -1.08724844455719, -1.4917539358139038, -1.8310152292251587, -0.3987995386123657, 0.608319878578186, -1.0937625169754028, -0.9956286549568176, -0.07776393741369247, -1.0693434476852417], [-0.9063773155212402, -0.6908564567565918, -0.9470200538635254, -0.7953954339027405, -0.41617557406425476, 0.11903305351734161, -0.582298219203949, -0.9038320183753967, 0.05668741092085838, -0.9778788685798645], [-0.2737824618816376, -0.19962476193904877, -0.12790539860725403, -0.16946633160114288, -0.15768742561340332, 0.060535892844200134, -0.21826386451721191, -0.2549329996109009, -0.07445978373289108, -0.18061675131320953], [-0.05241146683692932, -0.05083002895116806, -0.07690895348787308, -0.0920853540301323, -0.07482049614191055, 1.4934688806533813e-05, -0.07177091389894485, 0.1323775351047516, -0.004015091806650162, -0.04723843187093735], [-0.1794310361146927, -0.04074668511748314, -0.2367348074913025, -0.31505316495895386, -0.19250348210334778, -0.23480457067489624, -0.1834661364555359, 0.4561236500740051, -0.29010048508644104, -0.3582596778869629], [-0.35475650429725647, -0.173628568649292, -0.31900662183761597, -0.4828492999076843, -0.5046666264533997, -0.6555973887443542, -0.3388500213623047, 0.6319766640663147, -0.6023120880126953, -0.9048088788986206], [-0.5197299718856812, -0.315199613571167, -0.20672687888145447, 0.04110034927725792, -0.45003747940063477, -0.7977638244628906, -0.5096984505653381, 0.2526697516441345, -0.5751988887786865, -0.8164897561073303], [-0.5167641639709473, -0.38469696044921875, 0.08963892608880997, 0.1758500337600708, -0.28085243701934814, -0.8804630637168884, -0.4806053936481476, 0.1374555379152298, -0.15101563930511475, -0.7131625413894653], [-0.23667804896831512, -0.5925010442733765, 0.16751080751419067, -0.07572650909423828, -0.16627837717533112, -0.42065995931625366, -0.48354142904281616, -0.008097025565803051, -0.07378698885440826, -0.3231872022151947], [-0.219406396150589, -0.3951687216758728, -0.04338005557656288, 0.023833997547626495, -0.2700372338294983, -0.18469476699829102, -0.27649325132369995, 0.05335887521505356, 0.024394599720835686, -0.07053707540035248], [-0.215017169713974, -0.35040396451950073, -0.03378329798579216, 0.07298047095537186, -0.16122549772262573, -0.1967841535806656, -0.176758274435997, 0.02103833109140396, 0.05450994148850441, -0.13430556654930115], [-0.12663638591766357, -0.4423476755619049, -0.1541340947151184, 0.009094063192605972, -0.14159756898880005, 0.08160223066806793, -0.16306805610656738, -0.0018875447567552328, 0.027312153950333595, -0.11669269949197769], [-0.11495771259069443, -0.370584100484848, 0.007706494070589542, -0.2358325719833374, -0.16617026925086975, 0.025754909962415695, -0.26737040281295776, -0.057472627609968185, 0.09348197281360626, -0.13314107060432434], [0.0038756639696657658, -0.2235473394393921, 0.05767446011304855, -0.20435598492622375, -0.251356303691864, 0.05108710378408432, -0.19307316839694977, -0.11658423393964767, 0.011164411902427673, -0.029565393924713135], [-0.13534878194332123, -0.0638338103890419, -0.040070969611406326, -0.33895984292030334, -0.12185071408748627, 0.27271413803100586, -0.21978071331977844, 0.1201186329126358, 0.12341088801622391, 0.011346600018441677], [0.0023811887949705124, -0.1664002686738968, 0.023159895092248917, -0.2835332453250885, -0.1074809804558754, 0.10737546533346176, -0.27002885937690735, 0.06927276402711868, 0.06536589562892914, -0.048036567866802216], [0.04449036344885826, -0.005353627260774374, -0.02946757711470127, -0.11555057018995285, -0.2847553789615631, -0.04398220404982567, -0.32360514998435974, 0.05529983341693878, 0.006519125308841467, -0.030210621654987335], [-0.06964340060949326, 0.31861013174057007, 0.10499467700719833, 0.06949163973331451, -0.532209575176239, -0.26681485772132874, -0.20629659295082092, 0.22144652903079987, -0.2440195381641388, 0.04935944452881813], [-0.062149789184331894, 0.3177972137928009, 0.055230095982551575, 0.3042813241481781, -0.47102323174476624, -0.43532419204711914, -0.4111481308937073, 0.2898225486278534, -0.3930862545967102, 0.04623530060052872], [0.1068897619843483, 0.09632361680269241, 0.09202869236469269, 0.09711101651191711, -0.21166329085826874, -0.37559637427330017, -0.5432305335998535, 0.25614219903945923, -0.19929306209087372, -0.11432753503322601], [0.19500714540481567, -0.0665958821773529, 0.007164254318922758, 0.10637692362070084, -0.17923445999622345, -0.33038240671157837, -0.6675443053245544, 0.2206556499004364, -0.06535912305116653, -0.11657197773456573], [0.22940149903297424, -0.22926150262355804, 0.020900415256619453, 0.008905423805117607, -0.06606963276863098, -0.1562633216381073, -0.7022712826728821, 0.12321203202009201, -0.0977393090724945, -0.011768774129450321], [0.202000230550766, -0.24008609354496002, 0.03877558931708336, 0.04219136759638786, -0.12059387564659119, -0.23638196289539337, -0.460979700088501, 0.10404130816459656, 0.09869669377803802, -0.17491501569747925], [0.03216852620244026, -0.40196898579597473, -0.1012788638472557, 0.15126745402812958, -0.07918565720319748, -0.07699379324913025, -0.3289337754249573, -0.03140459954738617, -0.004272379446774721, -0.15228988230228424], [-0.05333647504448891, -0.40744736790657043, -0.21070174872875214, 0.07669041305780411, -0.16908282041549683, 0.0833083912730217, -0.34436720609664917, 0.0003689358418341726, 0.033454615622758865, -0.30535465478897095], [-0.09454899281263351, -0.6147845387458801, -0.1714242398738861, 0.004738069139420986, -0.22485947608947754, 0.00865896325558424, -0.48071014881134033, -0.035430364310741425, 0.05902685225009918, -0.24643446505069733], [0.08964837342500687, -0.9574072957038879, -0.3378455936908722, -0.36247891187667847, -0.31757068634033203, 0.36874040961265564, -0.4659268260002136, -0.3088449537754059, 0.005353021435439587, -0.5681049227714539], [-0.017223181203007698, -1.125140905380249, -1.4467474222183228, -1.9746520519256592, -0.536315381526947, 0.8959304094314575, -0.8133867383003235, -0.6080818176269531, -0.22404193878173828, -0.8890108466148376], [-1.1480151414871216, -1.019635558128357, -1.517576813697815, -1.492928385734558, -0.7263491153717041, 0.8616833090782166, -1.206382155418396, -0.9570229649543762, -0.2519895136356354, -1.1486204862594604], [-0.9120283722877502, -0.5310271978378296, -0.7040919065475464, -0.8516703248023987, -0.7301139235496521, 0.4222659468650818, -0.8176968693733215, -0.7050137519836426, 0.02012752555310726, -0.8615992665290833], [-0.2404847890138626, -0.11224932968616486, -0.22566819190979004, -0.1283055543899536, -0.24190500378608704, -0.004423473961651325, -0.18434852361679077, -0.07750097662210464, 0.00029269204242154956, -0.307778000831604], [-0.058084286749362946, -0.01963210478425026, 0.0528079979121685, 0.02781706675887108, 0.002015103818848729, -0.02096942812204361, -0.04450361803174019, -0.013190051540732384, -0.048848435282707214, -0.09081719070672989], [-0.20147359371185303, 0.006854163017123938, -0.21178553998470306, -0.390231192111969, -0.24846087396144867, -0.32003912329673767, -0.1254117339849472, 0.5028036236763, -0.39773309230804443, -0.5204243659973145], [-0.2616027295589447, -0.22645121812820435, -0.34212926030158997, -0.500978410243988, -0.47211316227912903, -0.5703862309455872, -0.22772377729415894, 0.4091404974460602, -0.6780327558517456, -0.8185399770736694], [-0.42764729261398315, -0.4386924207210541, -0.28956180810928345, 0.18618857860565186, -0.6391171216964722, -0.9635498523712158, -0.5770857930183411, 0.23908886313438416, -0.5506841540336609, -0.7412272691726685], [-0.37155047059059143, -0.3862704336643219, -0.18268273770809174, 0.0603291392326355, -0.32613605260849, -0.42514973878860474, -0.5616050362586975, 0.12430953979492188, -0.10293903201818466, -0.501865029335022], [-0.1370471566915512, -0.563965916633606, 0.08836696296930313, -0.06011971831321716, -0.41563722491264343, -0.30875179171562195, -0.3134480118751526, 0.039459262043237686, -0.100824736058712, -0.12266532331705093], [-0.18742892146110535, -0.474225789308548, -0.07011807709932327, -0.0881299078464508, -0.3541348874568939, -0.21702054142951965, -0.3034683167934418, 0.0034933665301650763, 0.017282651737332344, 0.12726479768753052], [-0.19278033077716827, -0.3978096544742584, -0.1770983189344406, -0.24983030557632446, -0.09901359677314758, 0.10996873676776886, -0.1091778427362442, -0.05477176234126091, 0.11654545366764069, 0.0015722077805548906], [-0.184697225689888, -0.17772068083286285, -0.09050069749355316, -0.29570260643959045, -0.09160486608743668, 0.11055289208889008, -0.094330333173275, -0.1801910549402237, 0.1317768543958664, -0.02458161860704422], [-0.055346760898828506, -0.3754034638404846, -0.2299758642911911, -0.46338555216789246, 0.02446705847978592, 0.1628539115190506, -0.22055016458034515, -0.054617974907159805, 0.15275801718235016, 0.023042187094688416], [-0.10666652768850327, -0.13906879723072052, -0.1732235848903656, -0.5389046669006348, 0.035066038370132446, 0.22572432458400726, -0.16522657871246338, -0.0643451064825058, 0.20895665884017944, -0.005954053718596697], [-0.08959317207336426, -0.06211748719215393, -0.14387661218643188, -0.5537099838256836, -0.07187660783529282, 0.1600155085325241, -0.15595760941505432, -0.07919934391975403, 0.06585923582315445, 0.07327347248792648], [-0.01332005299627781, -0.14043836295604706, -0.24865564703941345, -0.5176167488098145, 0.10291256755590439, 0.20987708866596222, -0.17283204197883606, -0.13359251618385315, 0.028213875368237495, -0.07502521574497223], [0.03426128625869751, 0.23899944126605988, -0.3658180832862854, -0.05946621298789978, -0.23437277972698212, 0.16353310644626617, -0.11123792082071304, 0.12337201088666916, -0.00018641850329004228, -0.12881730496883392], [-0.10410727560520172, 0.44909191131591797, -0.1685909777879715, 0.13729102909564972, -0.7637856006622314, -0.02579321153461933, -0.23554293811321259, 0.2501468360424042, -0.12054431438446045, -0.17124409973621368], [-0.18341213464736938, 0.5588564276695251, -0.16269686818122864, 0.1325474977493286, -0.26635807752609253, -0.24331265687942505, -0.520587146282196, 0.32065099477767944, -0.36492398381233215, -0.12097946554422379], [-0.18639133870601654, 0.25423434376716614, -0.041213810443878174, 0.14238068461418152, -0.09834791719913483, -0.362656831741333, -0.49095550179481506, 0.41830503940582275, -0.3118574619293213, -0.12601281702518463], [0.1834726482629776, 0.08176901191473007, 0.0052741519175469875, 0.15228749811649323, 0.0420333556830883, -0.3359602987766266, -0.4589998126029968, 0.30648964643478394, -0.199497252702713, 0.008723479695618153], [0.11627449095249176, -0.26346883177757263, -0.06364035606384277, 0.1871698796749115, -0.05028510093688965, -0.3644047975540161, -0.3865608274936676, 0.20603075623512268, -0.0066576809622347355, -0.016008825972676277], [0.05584283173084259, -0.2403438836336136, -0.09480080753564835, 0.15304617583751678, -0.08811107277870178, -0.33536431193351746, -0.48675262928009033, 0.23244759440422058, 0.09567804634571075, -0.010488648898899555], [0.10648608207702637, -0.38747817277908325, -0.1506916731595993, 0.1521940529346466, -0.2105829268693924, -0.29425159096717834, -0.36621594429016113, 0.14609621465206146, -0.004038487561047077, -0.07549072802066803], [0.04458744078874588, -0.6079202890396118, -0.1073010265827179, 0.04414635896682739, -0.10989073663949966, -0.15143097937107086, -0.30011945962905884, 0.19317443668842316, 0.050961460918188095, -0.06860706210136414], [-0.0008020366076380014, -0.8048251867294312, -0.19920490682125092, -0.0867808386683464, -0.2693454921245575, -0.09903161972761154, -0.332028865814209, -0.07674967497587204, -0.0726265013217926, -0.2387835830450058], [0.2465444803237915, -1.0215815305709839, -0.34034109115600586, -0.474159300327301, -0.5484341382980347, 0.19961132109165192, -0.4012966454029083, -0.3482743799686432, -0.029923168942332268, -0.37999972701072693], [-0.0172407403588295, -1.2655335664749146, -0.9743524193763733, -1.6445691585540771, -0.7179796099662781, 0.9140443205833435, -0.5729659199714661, -0.9052100777626038, -0.420205295085907, -0.966910719871521], [-0.9581221342086792, -0.6828834414482117, -0.9267558455467224, -1.1752774715423584, -0.856259822845459, 1.0648411512374878, -1.0235439538955688, -0.9212691783905029, -0.40929675102233887, -1.0632838010787964], [-0.8234691619873047, -0.3689115643501282, -0.6985354423522949, -0.6446672677993774, -0.6816264986991882, 0.628964364528656, -0.6832922697067261, -0.6643258929252625, -0.11689117550849915, -0.8133613467216492], [-0.23015351593494415, -0.03294188156723976, -0.1973637491464615, -0.16250638663768768, -0.1343473196029663, 0.04133351892232895, -0.2148560881614685, -0.15303511917591095, -0.006563928909599781, -0.1412700116634369], [-0.032435838133096695, -0.045169245451688766, -0.04986835643649101, -0.11493196338415146, -0.0004656379751395434, -0.010552702471613884, -0.05265098810195923, 0.0701313316822052, -0.0742000937461853, -0.14772191643714905], [-0.08317899703979492, -0.027713166549801826, -0.13678494095802307, -0.2608031630516052, -0.25742170214653015, -0.28326109051704407, -0.08564987778663635, 0.3657509982585907, -0.29510971903800964, -0.4507175087928772], [-0.42530789971351624, -0.10152663290500641, -0.45776841044425964, -0.5292707085609436, -0.4077368676662445, -0.5501874089241028, -0.3295597434043884, 0.443365216255188, -0.7153027057647705, -0.5812832713127136], [-0.592947244644165, -0.2943131625652313, -0.45001834630966187, 0.07224848121404648, -0.4753665030002594, -0.6803362369537354, -0.5514034628868103, 0.47540023922920227, -0.46103352308273315, -0.6819005608558655], [-0.5875460505485535, -0.24580252170562744, -0.41591280698776245, -0.0766422376036644, -0.46236321330070496, -0.15159544348716736, -0.5137550234794617, 0.19336196780204773, -0.14059287309646606, -0.2875541150569916], [-0.2776564359664917, -0.39588457345962524, -0.2516660988330841, -0.32083606719970703, -0.31241917610168457, -0.15429241955280304, -0.2028721421957016, -0.002723646117374301, 0.006746508646756411, 0.09545882791280746], [-0.19873164594173431, -0.6803187131881714, -0.36313945055007935, -0.35920989513397217, -0.12362519651651382, 0.07280314713716507, -0.14160512387752533, -0.10362818837165833, 0.0353877916932106, 0.0741782858967781], [-0.07197358459234238, -0.41304731369018555, -0.5977015495300293, -0.48216626048088074, -0.09778323024511337, 0.05781136825680733, 0.08522817492485046, -0.011655743233859539, 0.16086584329605103, 0.07329422980546951], [-0.14355486631393433, -0.43666329979896545, -0.5866031050682068, -0.5982451438903809, 0.03025180473923683, 0.09868723154067993, -0.09889399260282516, -0.06237166002392769, 0.17776751518249512, 0.2084941565990448], [-0.2692095935344696, -0.3724439740180969, -0.5551943778991699, -0.5409326553344727, 0.13254819810390472, 0.009014359675347805, 0.015816528350114822, 0.034674271941185, 0.08871069550514221, 0.10533449798822403], [-0.19369187951087952, -0.30810433626174927, -0.7220386862754822, -0.42849186062812805, 0.1929774433374405, 0.005177391227334738, -0.08437716215848923, 0.03645172342658043, 0.10662689805030823, 0.15809807181358337], [-0.10591167956590652, -0.26262497901916504, -0.7379668354988098, -0.3648443818092346, 0.1826614886522293, 0.0876365378499031, -0.11296650767326355, -0.02037913165986538, 0.02517753094434738, 0.19611237943172455], [-0.23628439009189606, -0.24511513113975525, -0.677884578704834, -0.18981881439685822, 0.17090339958667755, 0.13000422716140747, -0.030018175020813942, -0.13022762537002563, 0.045425038784742355, -0.12510059773921967], [-0.14925527572631836, 0.11714337766170502, -0.8376652002334595, -0.04083680361509323, -0.52114337682724, 0.274605393409729, 0.00095615244936198, -0.01589174009859562, 0.2061779946088791, -0.12345120310783386], [-0.462899386882782, 0.6203105449676514, -0.690588653087616, 0.09337229281663895, -0.8409460186958313, -0.005377357359975576, -0.40881243348121643, 0.08070997148752213, 0.17909851670265198, -0.1609593629837036], [-0.7353732585906982, 0.5553175210952759, -0.4276113510131836, 0.012517869472503662, -0.04584590718150139, -0.22909273207187653, -0.4961245656013489, 0.3854663670063019, -0.14755386114120483, -0.01860971935093403], [-0.5106647610664368, 0.20059019327163696, -0.2614530026912689, -0.0015094534028321505, 0.26912611722946167, -0.2524621784687042, -0.39365801215171814, 0.38821616768836975, -0.21448954939842224, 0.1363883763551712], [-0.16153420507907867, -0.10290877521038055, -0.21346905827522278, 0.06268849968910217, 0.029837924987077713, -0.31708353757858276, -0.3369269371032715, 0.30857977271080017, -0.25952884554862976, 0.15981793403625488], [-0.07783933728933334, -0.09379977732896805, -0.07241613417863846, 0.08247553557157516, -0.09507841616868973, -0.3389461934566498, -0.31873419880867004, 0.22809432446956635, -0.09368272125720978, 0.14923343062400818], [0.0015699504874646664, -0.22792461514472961, 0.02971675805747509, 0.014782941900193691, -0.09664436429738998, -0.42243900895118713, -0.22298772633075714, -0.006057675462216139, -0.11239068955183029, 0.10273966938257217], [0.016173837706446648, -0.46978825330734253, -0.12775841355323792, 0.008471579290926456, -0.22548925876617432, -0.6140865087509155, -0.19172020256519318, 0.10879416763782501, -0.009401769377291203, 0.27304503321647644], [0.06022761017084122, -0.6573929786682129, -0.09388389438390732, -0.139594167470932, -0.18947219848632812, -0.695074200630188, -0.06005859375, 0.15508651733398438, 0.05301058664917946, 0.19530390202999115], [0.05716245621442795, -0.5876086950302124, -0.288423091173172, -0.3307769000530243, -0.330314964056015, -0.6206017136573792, -0.025112606585025787, -0.09195423871278763, 0.12491218000650406, 0.028849467635154724], [0.13122372329235077, -0.8690996170043945, -0.3820257782936096, -0.6908079981803894, -0.7085304856300354, -0.2714729607105255, 0.09885651618242264, -0.31319659948349, 0.10078892856836319, -0.26011496782302856], [0.1054169088602066, -1.0672343969345093, -0.46394824981689453, -1.317228078842163, -0.9317393898963928, 0.2763853371143341, -0.26662948727607727, -0.9718555808067322, 0.012898203916847706, -0.7966009974479675], [-0.5872328877449036, -0.5342413187026978, -0.27606838941574097, -0.8311936855316162, -0.7269338965415955, 0.8103030920028687, -0.6432540416717529, -0.9235799908638, -0.3472554385662079, -0.9767780303955078], [-0.45348456501960754, -0.1705290675163269, -0.3863803744316101, -0.4237516522407532, -0.5157462358474731, 0.4449910819530487, -0.5634953379631042, -0.47434768080711365, 0.048355840146541595, -0.6328680515289307], [-0.14269036054611206, -0.060069020837545395, -0.1349112093448639, -0.009832278825342655, -0.08317994326353073, -0.11613786965608597, -0.14886827766895294, -0.020174194127321243, -0.038056861609220505, -0.1732662171125412], [-0.005742940586060286, 0.03780495375394821, 0.023850683122873306, -0.09551362693309784, -0.08807825297117233, -0.0827312171459198, 0.019435396417975426, 0.11412564665079117, -0.012507428415119648, -0.06470935046672821], [-0.10537431389093399, -0.03577053174376488, -0.1129884123802185, -0.28303781151771545, -0.21648406982421875, -0.28886061906814575, -0.12622220814228058, 0.36786800622940063, -0.21944057941436768, -0.41086992621421814], [-0.3271854519844055, -0.09776122868061066, -0.4303124248981476, -0.44761547446250916, -0.40244996547698975, -0.494113564491272, -0.30205440521240234, 0.48206740617752075, -0.6183291077613831, -0.5664805173873901], [-0.6303502321243286, -0.11568989604711533, -0.5445584654808044, -0.18736889958381653, -0.3687759041786194, -0.42108532786369324, -0.6121450662612915, 0.3079683184623718, -0.6411246657371521, -0.46502435207366943], [-0.39398035407066345, -0.19652320444583893, -0.48762038350105286, -0.3238583505153656, -0.4545169472694397, -0.2432222068309784, -0.6152457594871521, 0.13490988314151764, -0.26588553190231323, 0.0023045281413942575], [-0.17812205851078033, -0.3106517195701599, -0.5659263730049133, -0.4701930582523346, -0.27685055136680603, -0.08459296077489853, -0.20874011516571045, -0.0733543261885643, 0.09678680449724197, 0.20842255651950836], [0.03553470969200134, -0.59572434425354, -0.9464678764343262, -0.5282081961631775, 0.007196155376732349, 0.11608301103115082, 0.026022078469395638, -0.06135519966483116, 0.05179419368505478, 0.14767931401729584], [-0.06415680795907974, -0.3947664797306061, -0.9057316780090332, -0.5178624391555786, 0.2421812117099762, -0.027412813156843185, 0.10613308101892471, 0.10379595309495926, 0.009620393626391888, 0.1122395396232605], [-0.11948045343160629, -0.21778805553913116, -0.6586388349533081, -0.37698879837989807, 0.17259052395820618, -0.07602137327194214, 0.09749677032232285, 0.06692497432231903, -0.10588908195495605, 0.07555390894412994], [-0.09151162207126617, -0.25477129220962524, -0.706140398979187, -0.31092941761016846, 0.20244716107845306, -0.09148333966732025, 0.08197613805532455, -0.1363772600889206, -0.02839849516749382, 0.13114914298057556], [-0.13907702267169952, -0.37970104813575745, -0.6294368505477905, -0.06044847518205643, 0.29198792576789856, 0.07841993123292923, -0.0024970881640911102, -0.18539376556873322, -0.17208124697208405, 0.1514461487531662], [-0.04046135023236275, -0.4263123571872711, -0.5517756938934326, -0.1125495582818985, 0.4776206910610199, 0.17307354509830475, 0.024944450706243515, -0.16981634497642517, -0.1703522503376007, -0.028727855533361435], [-0.05159297212958336, -0.25890880823135376, -0.6967233419418335, -0.07656338065862656, 0.478100061416626, 0.2557339370250702, 0.09756986051797867, -0.6687013506889343, 0.09780357033014297, -0.2338937669992447], [-0.2625110447406769, 0.20494571328163147, -0.5557057857513428, 0.017138734459877014, -0.1864776760339737, 0.15370213985443115, 0.0019801994785666466, -0.7203893065452576, 0.21434730291366577, -0.10963796079158783], [-0.6783198118209839, 0.6978446841239929, -0.5226026773452759, 0.1945524513721466, -0.4131949841976166, -0.13766880333423615, -0.3581954836845398, -0.31637251377105713, 0.15830448269844055, 0.17258119583129883], [-0.8305522203445435, 0.4242147207260132, -0.4394601881504059, 0.04818931221961975, 0.10041362047195435, -0.22532051801681519, -0.3806844651699066, 0.18182970583438873, -0.03556527569890022, 0.20132994651794434], [-0.6867930293083191, 0.07267428189516068, -0.40492457151412964, 0.017115462571382523, 0.2459336668252945, -0.38234785199165344, -0.14814792573451996, 0.3264399766921997, -0.03566496819257736, 0.2537904977798462], [-0.2852998971939087, -0.13119933009147644, -0.3673517405986786, 0.0037949588149785995, 0.05769479647278786, -0.4085337519645691, -0.26380035281181335, 0.24163463711738586, -0.0672134980559349, 0.3105181157588959], [-0.1675359159708023, -0.08750563859939575, -0.26085156202316284, 0.04502693563699722, -0.029862694442272186, -0.34037911891937256, -0.23320089280605316, 0.24840636551380157, -0.13501287996768951, 0.2633924186229706], [0.002856454811990261, -0.33011841773986816, -0.026953037828207016, -0.1542709916830063, 0.04084264859557152, -0.3628520369529724, -0.34260252118110657, -0.03070884943008423, 0.03964603319764137, 0.22548018395900726], [-0.07045825570821762, -0.5621326565742493, -0.07067659497261047, -0.1975288987159729, -0.002172702457755804, -0.5523571968078613, -0.1583678275346756, -0.05670151114463806, 0.16469839215278625, 0.3062707781791687], [0.007093669846653938, -0.38192763924598694, -0.24440613389015198, -0.5885742902755737, 0.07670942693948746, -0.8757331371307373, -0.050734713673591614, -0.12860600650310516, 0.18956783413887024, 0.29106467962265015], [0.14749033749103546, -0.4833061993122101, -0.3280171751976013, -0.7431356906890869, -0.13575570285320282, -1.1464670896530151, 0.14341624081134796, -0.1290690004825592, 0.18572799861431122, 0.07093985378742218], [0.11811257898807526, -0.7212878465652466, -0.5403510332107544, -0.9850271940231323, -0.5610765218734741, -1.099280834197998, 0.40874651074409485, -0.47516417503356934, 0.240830197930336, -0.14879532158374786], [0.35595467686653137, -0.6588319540023804, -0.09803084284067154, -1.0691914558410645, -0.5002109408378601, -0.925275981426239, 0.06840375810861588, -0.7909930348396301, 0.28189611434936523, -1.0321258306503296], [-0.20682334899902344, -0.4293651282787323, 0.13478592038154602, -0.44746577739715576, -0.38219165802001953, -0.09737927466630936, -0.438982218503952, -0.5160391330718994, -0.0866297110915184, -1.009322166442871], [-0.4051624834537506, -0.2613109052181244, 0.019705312326550484, -0.27823352813720703, -0.2650306224822998, -0.031312670558691025, -0.5013381838798523, -0.30966681241989136, 0.011638813652098179, -0.637640118598938], [-0.11495605111122131, 0.062296878546476364, -0.09143786132335663, -0.09054218232631683, -0.1948239505290985, -0.19283822178840637, -0.14665335416793823, 0.02741052955389023, -0.04697657749056816, -0.24008949100971222], [0.06857136636972427, 0.042680881917476654, -0.0963127464056015, 0.03739069774746895, -0.011777091771364212, -0.018880046904087067, -0.030712012201547623, -0.06623861938714981, 0.0547509603202343, 0.053915154188871384], [0.012862489558756351, -0.025393370538949966, -0.05787422135472298, -0.14698080718517303, -0.0735185444355011, -0.21730460226535797, -0.14877894520759583, 0.25687816739082336, -0.13848479092121124, -0.29137441515922546], [-0.28635627031326294, -0.14146164059638977, -0.2389603704214096, -0.42433932423591614, -0.24191002547740936, -0.4509345293045044, -0.22875559329986572, 0.37172749638557434, -0.45746827125549316, -0.468637079000473], [-0.4547629952430725, -0.14732861518859863, -0.43698224425315857, -0.3014453053474426, -0.35258904099464417, -0.37849360704421997, -0.6095405220985413, 0.22298870980739594, -0.599384069442749, -0.4067901372909546], [-0.32654905319213867, -0.2104726880788803, -0.7995440363883972, -0.44683265686035156, -0.3128768503665924, -0.2847193777561188, -0.6127305626869202, 0.13875077664852142, -0.3025932013988495, 0.16002167761325836], [-0.046689871698617935, -0.42129844427108765, -0.873032808303833, -0.5397355556488037, 0.045851513743400574, -0.024082856252789497, -0.03655669093132019, 0.03137637674808502, -0.21597923338413239, 0.11314602196216583], [0.03710904344916344, -0.6130552291870117, -0.8995407223701477, -0.4487868547439575, 0.105886310338974, -0.07266990095376968, 0.22645586729049683, 0.008568073622882366, -0.07725577801465988, 0.020702512934803963], [0.14780151844024658, -0.45324477553367615, -0.7355698347091675, -0.48113805055618286, 0.1528628021478653, 0.04317381605505943, -0.02127799019217491, -0.005321907810866833, -0.13486862182617188, 0.1565270572900772], [-0.03521791845560074, -0.11918497085571289, -0.557747483253479, -0.2597917914390564, 0.25882118940353394, -0.09677794575691223, 0.0011169036151841283, -0.13976237177848816, -0.20688141882419586, 0.1090717613697052], [-0.028411153703927994, -0.36021462082862854, -0.37475231289863586, -0.18182885646820068, 0.20829720795154572, -0.08140783756971359, -0.030387146398425102, -0.11492124199867249, -0.1320767104625702, -0.03943190351128578], [0.012208830565214157, -0.804186224937439, -0.2795816957950592, -0.3012341558933258, 0.39059075713157654, 0.10764244943857193, 0.10297270119190216, -0.17934927344322205, -0.24693264067173004, -0.024692993611097336], [-0.0904327929019928, -0.5797795057296753, -0.19281843304634094, -0.17129381000995636, 0.42636755108833313, 0.21024516224861145, 0.11429138481616974, -0.5352718830108643, -0.06658608466386795, -0.19602102041244507], [-0.09557969868183136, -0.23708273470401764, -0.24139949679374695, -0.11363948881626129, 0.2515566647052765, 0.16535991430282593, 0.0501566156744957, -1.0573384761810303, 0.12630227208137512, -0.27847933769226074], [-0.44644078612327576, 0.24012191593647003, -0.12185793370008469, 0.10946587473154068, -0.18969310820102692, 0.13540492951869965, -0.13241305947303772, -0.9913652539253235, 0.1867251843214035, -0.04210198298096657], [-0.770616352558136, 0.5753172039985657, -0.24809777736663818, 0.1154852882027626, -0.23461885750293732, -0.13718731701374054, -0.2528764605522156, -0.3190842866897583, 0.04735095798969269, 0.0785055086016655], [-0.9620194435119629, 0.3325750529766083, -0.3584041893482208, -0.10479092597961426, 0.12627175450325012, -0.33482059836387634, -0.09257818758487701, -0.0715700015425682, 0.06669546663761139, 0.17852255702018738], [-0.7519884705543518, 0.11012312024831772, -0.2566564381122589, -0.05389505624771118, 0.2619207799434662, -0.5135339498519897, -0.03836892172694206, 0.11763303726911545, 0.03186141699552536, 0.2824327051639557], [-0.2883618175983429, 0.026069924235343933, -0.23867835104465485, -0.04950302466750145, 0.21367274224758148, -0.33882004022598267, -0.25570589303970337, 0.04864395782351494, -0.20266792178153992, 0.21332722902297974], [-0.09567373245954514, -0.20955757796764374, -0.2549070417881012, 0.02182888612151146, 0.13519282639026642, -0.2690528631210327, -0.18682453036308289, -0.004643841180950403, -0.12638546526432037, 0.1978522390127182], [-0.1676114797592163, -0.5140348672866821, -0.13144154846668243, -0.12643039226531982, 0.060960642993450165, -0.124196358025074, -0.15679055452346802, -0.09907525032758713, 0.022917522117495537, 0.3343198001384735], [-0.16235297918319702, -0.6217904686927795, -0.14327527582645416, -0.4414229393005371, 0.18420721590518951, -0.1646050214767456, -0.08188938349485397, -0.03330794349312782, -0.018311284482479095, 0.19464503228664398], [-0.0775594413280487, -0.49619126319885254, -0.25195959210395813, -0.5205693244934082, 0.15337646007537842, -0.4420086741447449, -0.020043572410941124, -0.0018836385570466518, -0.17992623150348663, 0.12023234367370605], [0.1078900396823883, -0.6520159244537354, -0.3401195704936981, -0.8265332579612732, 0.053549449890851974, -0.6365724802017212, 0.2215196192264557, -0.1482136994600296, -0.10418770462274551, 0.005810064263641834], [0.07749053090810776, -0.6462127566337585, -0.33274322748184204, -0.6108331680297852, -0.2994460463523865, -1.0343070030212402, 0.44222524762153625, -0.3111424446105957, -0.051437344402074814, -0.4385049045085907], [0.27858367562294006, -0.6896547675132751, 0.12116969376802444, -0.9908280968666077, -0.4698421359062195, -1.163926362991333, 0.235918328166008, -0.4827491044998169, -0.2661723792552948, -1.0738071203231812], [-0.15458914637565613, -0.5083761811256409, 0.4334639012813568, -0.7495776414871216, -0.3200867772102356, -0.4354003369808197, -0.38859060406684875, -0.39758267998695374, -0.21533706784248352, -0.9166058301925659], [-0.43925607204437256, -0.30744636058807373, 0.42871659994125366, -0.32977059483528137, -0.3290410339832306, -0.20824535191059113, -0.6112692356109619, -0.2900833785533905, -0.2406415492296219, -0.4263013005256653], [-0.1079760193824768, 0.018927594646811485, 0.046712156385183334, -0.019352713599801064, -0.017706336453557014, -0.1405247449874878, -0.15283051133155823, -0.12022987753152847, 0.008946763351559639, -0.06756000220775604], [-0.06203818693757057, -0.026954179629683495, 0.014695622026920319, -0.0771641954779625, -0.009537190198898315, 0.06946087628602982, -0.07881131023168564, 0.05095858499407768, -0.1041632890701294, 0.030051417648792267], [-0.1520179808139801, -0.030354147776961327, -0.16472895443439484, -0.06515328586101532, -0.04545871540904045, -0.09553862363100052, -0.07680177688598633, 0.03945202752947807, -0.09240671992301941, -0.1799413561820984], [-0.1667361557483673, -0.005767292343080044, -0.17599588632583618, -0.22200797498226166, -0.16831040382385254, -0.3138140141963959, -0.11075377464294434, 0.3348962664604187, -0.27032628655433655, -0.3580980598926544], [-0.6604653596878052, 0.07584909349679947, -0.263277143239975, -0.31544575095176697, -0.0667232871055603, -0.438726544380188, -0.5699109435081482, 0.20943021774291992, -0.6108888983726501, -0.21021367609500885], [-0.1479007452726364, -0.11595582962036133, -0.5597509741783142, -0.2733860909938812, 0.1075715497136116, -0.3528555631637573, -0.7846524715423584, 0.0563017763197422, -0.7402732968330383, 0.008040684275329113], [-0.0017615449614822865, -0.543155312538147, -0.804821252822876, -0.5338454842567444, 0.2270156741142273, -0.18956711888313293, -0.08571666479110718, -0.03484698757529259, -0.3251228928565979, 0.0315450020134449], [-0.0008604717440903187, -0.7111643552780151, -0.46760275959968567, -0.5161460041999817, 0.18733127415180206, -0.22444111108779907, 0.048892755061388016, -0.19816218316555023, -0.4194164276123047, 0.09897399693727493], [0.20507043600082397, -0.46738913655281067, -0.26661601662635803, -0.45450732111930847, 0.25791609287261963, -0.18900714814662933, 0.05278331786394119, -0.10738994926214218, -0.4437843859195709, 0.022330710664391518], [0.06364830583333969, -0.21977943181991577, -0.17575380206108093, -0.25178471207618713, 0.19342947006225586, -0.02023741789162159, 0.037589967250823975, -0.18078137934207916, -0.327008455991745, -0.007613592781126499], [0.15410153567790985, -0.4567762315273285, -0.16980060935020447, -0.20583032071590424, 0.19053931534290314, 0.07559037208557129, 0.0971572995185852, -0.26097607612609863, -0.32582491636276245, -0.059712670743465424], [0.05817633867263794, -0.7139463424682617, -0.0984293520450592, -0.23161213099956512, 0.16891083121299744, 0.12738458812236786, 0.14749686419963837, -0.29855719208717346, -0.17401272058486938, -0.09880421310663223], [0.047094233334064484, -0.5902309417724609, -0.09954140335321426, -0.29305416345596313, 0.34626176953315735, 0.03741353750228882, 0.13299250602722168, -0.6303540468215942, 0.07589545845985413, -0.11650052666664124], [-0.025428351014852524, -0.17931954562664032, -0.038656704127788544, 0.017776070162653923, 0.1493554562330246, 0.080422043800354, 0.10462212562561035, -1.0277299880981445, 0.13970449566841125, -0.1969202309846878], [-0.42270344495773315, 0.25613829493522644, 0.09996233135461807, 0.007449074648320675, -0.14551478624343872, -0.04703767970204353, -0.19511932134628296, -0.6551545262336731, 0.23944611847400665, 0.02282756008207798], [-0.870630145072937, 0.46341511607170105, -0.045480936765670776, 0.00503259664401412, -0.11574780941009521, -0.1612994521856308, -0.22717778384685516, -0.24472902715206146, 0.12604986131191254, -0.06716062873601913], [-0.9207168817520142, 0.3540440797805786, -0.13990281522274017, -0.069122314453125, 0.09228233247995377, -0.2369581013917923, 0.012396246194839478, -0.13040021061897278, 0.06606996059417725, 0.13605369627475739], [-0.7459062933921814, 0.1211230680346489, -0.24466265738010406, -0.12106164544820786, 0.26932114362716675, -0.41209420561790466, -0.11165396869182587, -0.039452604949474335, -0.13839095830917358, 0.26369574666023254], [-0.26205378770828247, -0.19491493701934814, -0.2822311520576477, -0.049957823008298874, 0.3216603398323059, -0.356047123670578, -0.25345566868782043, 0.16578388214111328, -0.1076800674200058, 0.2519816756248474], [-0.16014674305915833, -0.5038026571273804, -0.1365220546722412, -0.06283432245254517, 0.2566123604774475, -0.22970731556415558, -0.28069546818733215, 0.2263643741607666, -0.13183008134365082, 0.08160299062728882], [-0.19280587136745453, -0.8945868611335754, -0.25568661093711853, -0.18469934165477753, 0.24146878719329834, -0.2726857662200928, -0.12865401804447174, 0.3524715304374695, -0.13737662136554718, 0.03258148580789566], [-0.0924917683005333, -0.7658588886260986, -0.1026691123843193, -0.3184017539024353, 0.16965678334236145, -0.14257854223251343, -0.03880001977086067, 0.1541776955127716, -0.37939900159835815, 0.09443534910678864], [0.014657645486295223, -0.5323261022567749, -0.2241336554288864, -0.24819955229759216, -0.03631439432501793, -0.21726453304290771, -0.0023880810476839542, 0.11207721382379532, -0.26937994360923767, 0.1610010415315628], [-0.07691890746355057, -0.544609010219574, -0.3579801321029663, -0.33852919936180115, -0.10638020932674408, -0.12568528950214386, 0.1336088925600052, 0.017292670905590057, -0.48352548480033875, -0.2325797826051712], [0.1459808647632599, -0.7836591601371765, -0.19768451154232025, -0.4816490709781647, -0.3087451756000519, -0.3536590039730072, 0.14546556770801544, -0.045905329287052155, -0.5807550549507141, -0.7823660969734192], [0.14538505673408508, -0.6236175298690796, 0.007636149879544973, -0.6914756298065186, -0.41061070561408997, -0.4895865321159363, 0.026833562180399895, -0.37861019372940063, -0.4833363890647888, -1.2912598848342896], [-0.2563614845275879, -0.38514208793640137, 0.30604657530784607, -0.989804744720459, -0.3427659571170807, -0.6418339610099792, -0.22781023383140564, -0.3817284405231476, -0.3361271023750305, -1.0479991436004639], [-0.3840371072292328, -0.2348822057247162, 0.5655261278152466, -0.5008283257484436, -0.24294717609882355, -0.5123797655105591, -0.6585211157798767, -0.45780226588249207, -0.5073957443237305, -0.3637104332447052], [-0.006562887690961361, -0.09043600410223007, 0.14006231725215912, -0.12430507689714432, -0.015408600680530071, -0.16602030396461487, -0.18140630424022675, -0.05973595008254051, -0.09608371555805206, -0.09313643723726273], [0.0035713473334908485, -0.04756170138716698, 0.03156878054141998, 0.032219916582107544, -0.04431040212512016, 0.02813865803182125, -0.0822039544582367, 0.0813969299197197, -0.06287495791912079, -0.03985253721475601], [-0.05969555675983429, -0.05283789336681366, -0.09700214862823486, -0.05101907625794411, 0.0616937130689621, -0.10986899584531784, 0.015984266996383667, -0.0055328612215816975, 0.011862287297844887, 0.01351667195558548], [-0.3093125522136688, 0.05408696085214615, -0.3182544708251953, 0.10011440515518188, 0.031246162950992584, -0.355355829000473, -0.2486218512058258, 0.03402327746152878, -0.3072231411933899, -0.354137122631073], [-0.7080408334732056, -0.0353863388299942, -0.08664756268262863, 0.014513369649648666, -0.008591905236244202, -0.41865837574005127, -0.7577971816062927, 0.07454671710729599, -0.7476615905761719, -0.40716737508773804], [-0.025252504274249077, -0.21509456634521484, -0.18682894110679626, -0.31042948365211487, 0.07869531959295273, -0.3656904101371765, -0.8630750775337219, -0.14332830905914307, -1.2029194831848145, -0.019286395981907845], [0.05459972098469734, -0.5518339276313782, -0.02183094620704651, -0.2607771158218384, -0.05215255543589592, -0.4168655276298523, -0.1540977954864502, -0.1853107362985611, -0.7608993053436279, -0.11406055092811584], [-0.06917125731706619, -0.861159086227417, -0.056080128997564316, -0.37932339310646057, 0.028308125212788582, -0.28905075788497925, -0.05142248049378395, -0.0928303673863411, -0.5349963903427124, -0.14728571474552155], [0.22418633103370667, -0.478841096162796, -0.16619980335235596, -0.46116921305656433, 0.18620218336582184, -0.3522360920906067, 0.0643879771232605, -0.19128209352493286, -0.4281017780303955, -0.05944326892495155], [0.15767398476600647, -0.3077508509159088, -0.08789568394422531, -0.40327897667884827, 0.27680400013923645, -0.1241958811879158, 0.08885658532381058, -0.3522409200668335, -0.3089389204978943, -0.06494537740945816], [0.06467355787754059, -0.4403337836265564, -0.08814781904220581, -0.3744489550590515, 0.24861560761928558, -0.006071178242564201, 0.09491728991270065, -0.3534072935581207, -0.18819978833198547, -0.13659824430942535], [0.2191927134990692, -0.5730878710746765, -0.09074411541223526, -0.18089555203914642, 0.11760084331035614, 0.11121248453855515, 0.15342998504638672, -0.3957434892654419, -0.1615416705608368, -0.0548824742436409], [-0.021957967430353165, -0.2303314208984375, -0.08563752472400665, -0.15670926868915558, 0.15305078029632568, -0.029775584116578102, 0.31337860226631165, -0.6072694659233093, -0.061743929982185364, -0.1017775908112526], [-0.09610304981470108, 0.05720629543066025, 0.019015664234757423, 0.02902263030409813, -0.04984574019908905, 0.06062202528119087, 0.06749621033668518, -0.6953380703926086, 0.15360127389431, -0.18102021515369415], [-0.6473074555397034, 0.2875339686870575, 0.07921577244997025, 0.06838478147983551, -0.15903177857398987, -0.13420003652572632, -0.021992072463035583, -0.5096067190170288, 0.19108468294143677, -0.23221765458583832], [-1.1729637384414673, 0.5341789722442627, -0.022610800340771675, 0.08480553328990936, 0.0026869517751038074, -0.3431876599788666, 0.02712944522500038, -0.24861331284046173, 0.1765834242105484, -0.16793984174728394], [-0.7488673329353333, 0.11971406638622284, -0.05279223993420601, -0.030679235234856606, 0.23156073689460754, -0.37670236825942993, 0.04166903346776962, -0.15164127945899963, -0.02428380958735943, 0.06500966846942902], [-0.48625418543815613, 0.05619242414832115, -0.04197531193494797, -0.11529241502285004, 0.3660115599632263, -0.24705800414085388, -0.09168531745672226, -0.10314010083675385, -0.0799846351146698, 0.16611947119235992], [-0.18885335326194763, -0.46127498149871826, -0.09386707097291946, -0.1655571013689041, 0.3481942117214203, -0.24540364742279053, -0.16078202426433563, 0.3179870843887329, -0.21811658143997192, 0.20239129662513733], [-0.14478935301303864, -0.7844469547271729, -0.18891364336013794, -0.15837155282497406, 0.025399038568139076, -0.04344150051474571, -0.1511373370885849, 0.39325180649757385, -0.15483707189559937, 0.01897851563990116], [-0.12537601590156555, -1.0390836000442505, -0.09451531618833542, -0.06112673506140709, 0.10756272822618484, -0.06474224478006363, -0.07492941617965698, 0.2694562077522278, -0.2501099705696106, -0.07034975290298462], [-0.02176017500460148, -1.0565996170043945, -0.2408088594675064, 0.08920043706893921, -0.10915782302618027, -0.13047170639038086, 0.014899463392794132, 0.2802961468696594, -0.34234219789505005, 0.002893605036661029], [0.026384809985756874, -0.630382776260376, -0.22137174010276794, 0.02044663578271866, -0.1170106902718544, -0.08003208786249161, 0.003767060348764062, 0.21757903695106506, -0.3951241075992584, -0.17119458317756653], [0.01615004986524582, -0.5958096385002136, -0.30599913001060486, 0.05536293238401413, -0.08208617568016052, -0.18082429468631744, -0.04291636124253273, 0.15936559438705444, -0.3630116283893585, -0.2601807415485382], [0.06759828329086304, -0.9251251220703125, -0.327474445104599, -0.07763953506946564, -0.2679319381713867, -0.1458154022693634, 0.016712183132767677, -0.14578256011009216, -0.5553142428398132, -0.7690790891647339], [0.13132238388061523, -0.817584216594696, 0.20127913355827332, -0.31061384081840515, -0.6021832227706909, -0.1801309883594513, -0.031128518283367157, -0.3002459704875946, -0.5647268891334534, -1.5311394929885864], [-0.16169436275959015, -0.5605176091194153, 0.3728960454463959, -1.2168008089065552, -0.3771340847015381, -0.5757719278335571, -0.09873215109109879, -0.5754796862602234, -0.706428587436676, -1.0444505214691162], [-0.48218801617622375, -0.3299001455307007, 0.5487995743751526, -0.5411571264266968, -0.36238908767700195, -0.5952697396278381, -0.5572629570960999, -0.46427014470100403, -0.6335313320159912, -0.3979392647743225], [-0.08193767070770264, -0.05824750289320946, 0.22609680891036987, -0.12104421854019165, -0.1610257923603058, -0.11366850137710571, -0.09000343829393387, -0.1248231753706932, -0.07210030406713486, -0.11718575656414032], [-0.10156272351741791, 0.08195767551660538, -0.07704301923513412, 0.03408476337790489, -0.026350315660238266, -0.04610130190849304, -0.08090926706790924, 0.012690514326095581, -0.027886414900422096, -0.10382801294326782], [-0.06965456157922745, 0.10842473804950714, -0.03649476170539856, 0.09262409806251526, -0.09243571013212204, -0.035165365785360336, 0.05079829692840576, 0.006521669216454029, -0.03853923827409744, -0.01703423261642456], [-0.38233157992362976, 0.08452047407627106, -0.2154901921749115, 0.10915744304656982, -0.13372041285037994, -0.5103727579116821, -0.23654714226722717, -0.07576531916856766, -0.28997349739074707, -0.32736238837242126], [-0.7856670618057251, -0.28753483295440674, 0.06377298384904861, 0.24536573886871338, -0.3517521023750305, -0.3355410695075989, -0.7340129613876343, -0.1957661360502243, -0.9847012758255005, -0.45500391721725464], [0.005882310215383768, -0.36356908082962036, 0.15798737108707428, 0.12506946921348572, -0.36875420808792114, -0.324664831161499, -0.8739400506019592, -0.023500734940171242, -1.1380141973495483, -0.15799656510353088], [0.08484665304422379, -0.6256200075149536, 0.09219218790531158, -0.1752990484237671, -0.25192317366600037, -0.33141279220581055, -0.14021199941635132, -0.24410031735897064, -0.6649508476257324, -0.0994778573513031], [0.012040250934660435, -0.7835180759429932, 0.11034951359033585, -0.29687634110450745, -0.12409412860870361, -0.31004053354263306, 0.060914989560842514, -0.12121186405420303, -0.401065856218338, -0.22506053745746613], [0.060359179973602295, -0.6378765106201172, -0.08921539038419724, -0.3628210127353668, 0.11160513013601303, -0.5238461494445801, 0.09345117211341858, -0.05840674787759781, -0.16771939396858215, -0.10471707582473755], [0.1506340056657791, -0.4862244725227356, -0.2715478241443634, -0.49915292859077454, 0.18571969866752625, -0.4614938795566559, 0.13777294754981995, -0.2035209834575653, -0.11038985848426819, 0.008166085928678513], [0.1349707990884781, -0.1675742119550705, -0.011244701221585274, -0.2721083462238312, 0.11965464055538177, -0.39604318141937256, 0.2187177985906601, -0.29411959648132324, -0.010743417777121067, -0.1850299835205078], [0.18965701758861542, -0.1471817046403885, 0.06962825357913971, -0.3233868479728699, -0.12215791642665863, -0.22269001603126526, 0.2742638885974884, -0.5246106386184692, -0.11425922811031342, -0.03319074586033821], [0.039014145731925964, -0.2186807543039322, 0.03208174183964729, -0.1602148860692978, -0.03328417241573334, -0.20428749918937683, 0.3763689398765564, -0.6277570128440857, 0.03924335539340973, 0.03090115822851658], [-0.3496468961238861, -0.11503313481807709, 0.17787101864814758, -0.07908669859170914, -0.11080089211463928, -0.1552281528711319, -0.006229539401829243, -0.41096875071525574, 0.13277313113212585, -0.19284948706626892], [-0.8698181509971619, 0.3023475110530853, 0.1290334165096283, 0.024336524307727814, -0.0795753076672554, -0.3050823211669922, -0.11176163703203201, -0.24214287102222443, 